svm_type c_svc
kernel_type rbf
gamma 0.0001
nr_class 2
total_sv 124
rho -0.600372
label 1 -1
nr_sv 97 27
SV
0.3995964901473465 1:380 2:300 3:74 4:226 5:174 6:98 7:108 8:266 9:246 10:92 11:78 12:142 13:106 14:268 15:226 16:46 17:34 18:82 19:96 20:64 21:96 22:72 23:50 24:166 25:84 26:138 27:106 28:56 29:96 30:44 31:8 32:104 33:38 34:98 35:104 36:156 37:140 38:28 39:52 40:70 41:56 42:44 43:68 44:50 45:76 46:52 47:90 48:94 49:94 50:56 51:48 52:26 53:136 54:80 55:154 56:68 57:24 58:52 59:74 60:60 61:32 62:34 63:42 64:146 65:126 66:66 67:32 68:48 69:20 70:12 71:74 72:112 73:132 74:46 75:30 76:8 77:46 78:76 79:138 80:166 81:20 82:60 83:42 84:30 85:20 86:112 87:68 88:104 89:58 90:32 91:118 92:116 93:78 94:144 95:100 96:18 97:58 98:116 99:72 100:102 101:88 102:20 103:84 104:52 105:42 106:26 107:20 108:86 109:42 110:134 111:34 112:8 113:16 114:34 115:22 116:44 117:112 118:60 119:40 120:82 121:16 122:36 123:28 124:32 125:50 126:42 127:12 128:34 129:36 130:64 131:12 132:12 133:12 134:36 135:44 136:44 137:38 138:20 139:62 140:12 141:160 142:52 143:8 144:96 145:18 146:30 147:32 148:22 149:24 150:12 151:20 152:80 153:42 154:46 155:16 156:18 157:24 158:50 159:38 160:14 161:140 162:68 163:32 164:106 165:36 166:52 167:14 168:88 169:46 170:26 171:20 172:126 173:110 174:20 175:22 176:6 177:52 178:62 179:38 180:12 181:58 182:32 183:26 184:34 185:60 186:8 187:66 188:18 189:38 190:22 191:10 192:26 193:34 194:44 195:84 196:26 197:10 198:16 199:44 200:10 201:22 202:26 203:32 204:38 205:4 206:16 207:28 208:48 209:24 210:20 211:8 212:128 213:36 214:52 215:34 216:120 217:76 218:38 219:114 220:44 221:38 222:4 223:16 224:22 225:62 226:36 227:26 228:24 229:110 230:22 231:88 232:42 233:20 234:40 235:12 236:20 237:26 238:14 239:34 240:16 241:32 242:26 243:42 244:34 245:36 246:18 247:14 248:18 249:20 250:26 251:28 252:20 253:20 254:16 255:26 256:92 257:20 258:56 259:20 260:44 261:10 262:12 263:16 264:14 265:50 266:50 267:6 268:14 269:40 270:26 271:26 272:44 273:28 274:16 275:22 276:30 277:24 278:22 279:36 280:44 281:30 282:48 283:34 284:24 285:12 286:2 287:10 288:62 289:28 290:6 291:10 292:6 293:30 294:8 295:30 296:24 297:14 298:22 299:18 300:16 301:42 302:8 303:12 304:16 305:40 306:18 307:18 308:14 309:24 310:22 311:12 312:18 313:36 314:8 315:58 316:14 317:10 318:6 319:12 320:2 321:24 322:70 323:156 324:24 325:18 327:50 328:2 329:42 330:10 331:44 332:38 333:38 334:8 335:10 336:20 337:24 338:20 339:42 340:14 341:14 342:28 343:6 344:4 345:22 346:8 347:22 348:4 349:2 350:10 351:24 352:10 353:12 354:22 355:14 356:14 357:18 358:52 359:16 360:22 361:8 362:20 363:18 364:36 365:16 366:18 367:30 368:16 369:12 370:18 371:56 372:36 373:20 374:12 375:68 376:8 377:14 378:4 379:32 380:36 381:18 382:30 383:12 384:14 385:8 386:30 387:16 388:24 389:8 390:14 391:8 392:26 393:16 394:10 395:2 396:10 397:8 398:38 399:24 400:20 401:54 402:6 403:10 404:12 405:30 406:22 407:18 408:22 409:8 410:12 411:16 412:24 413:12 414:16 415:30 416:14 417:52 418:24 419:14 420:12 421:14 422:12 423:40 425:18 426:46 427:40 428:18 429:26 430:16 431:14 432:12 433:6 434:2 435:28 436:10 437:58 438:6 440:8 441:40 442:18 443:52 444:38 445:20 446:16 447:22 448:12 449:16 450:12 451:26 452:2 453:10 454:14 455:4 456:18 457:6 458:14 459:24 460:12 461:14 462:18 463:28 464:6 465:22 466:4 467:22 468:8 469:28 470:24 471:8 472:4 473:14 474:12 475:16 476:12 477:14 478:14 479:30 480:10 481:2 482:4 483:8 484:4 485:6 486:16 487:24 488:34 489:22 490:58 491:8 492:8 493:8 494:16 495:38 496:14 497:22 498:12 499:28 500:34 501:10 502:24 503:12 504:18 505:26 506:8 507:6 508:28 509:10 510:22 511:8 512:14 513:12 514:16 515:20 516:18 517:8 518:2 519:4 520:26 521:50 522:14 523:6 524:8 525:48 526:8 527:16 528:10 529:2 530:4 532:70 533:14 534:12 535:20 536:2 537:2 538:10 539:4 540:32 541:10 542:18 543:6 544:40 545:28 546:18 547:8 548:2 549:22 550:6 551:6 552:12 553:8 554:12 555:10 556:8 557:18 558:4 559:34 560:6 561:8 562:2 563:20 564:20 566:4 567:4 568:2 569:8 570:6 571:12 572:28 573:14 574:4 575:4 576:36 577:34 579:38 580:8 581:2 582:6 583:14 584:12 585:10 586:8 587:6 588:26 589:32 590:10 591:40 592:24 593:10 594:24 595:2 596:8 597:14 599:14 600:4 601:2 602:10 603:32 604:28 605:12 606:30 607:6 608:10 609:10 610:12 611:30 612:12 613:18 614:20 615:40 616:14 617:32 618:18 619:4 621:28 622:6 623:12 624:14 625:12 626:16 627:12 628:20 629:12 630:6 631:16 633:4 634:10 635:14 636:4 637:4 638:10 639:8 640:22 642:20 643:22 644:4 645:24 646:62 647:14 648:8 649:16 650:10 651:2 652:6 653:4 654:8 655:14 657:10 658:2 659:22 660:12 661:30 662:32 663:36 664:10 665:4 666:10 667:20 668:12 669:22 670:4 671:12 672:10 673:6 674:12 675:4 676:14 677:20 678:8 679:16 680:6 681:14 682:22 683:14 684:4 685:6 686:6 687:10 688:16 689:2 690:2 691:28 692:12 694:6 695:2 696:6 698:16 699:4 700:6 701:30 703:4 704:12 705:8 706:12 707:16 708:6 709:14 710:2 711:16 712:4 714:18 715:6 716:8 717:20 719:4 720:8 721:12 722:28 724:4 725:4 726:6 727:30 728:6 729:10 730:2 731:16 732:10 733:10 734:10 735:2 736:2 737:22 738:8 739:28 740:12 741:12 742:2 743:18 744:28 746:10 747:4 748:16 749:14 750:10 751:4 752:2 753:12 754:18 755:16 756:10 757:10 759:14 760:10 761:2 762:30 763:24 764:2 765:18 766:4 767:2 768:12 769:10 770:10 771:18 772:16 773:4 774:90 775:26 776:10 777:14 778:40 779:50 781:10 783:10 784:90 786:6 787:16 788:8 789:38 790:26 791:52 792:18 793:16 795:38 796:18 797:14 798:10 799:10 800:4 801:12 802:2 803:2 804:12 805:12 806:8 807:14 808:10 809:8 810:4 811:2 813:6 814:6 815:2 816:12 817:18 818:16 819:8 820:16 821:6 822:14 823:18 824:2 825:8 828:2 829:2 831:14 832:2 833:22 834:32 835:14 836:6 838:8 839:12 840:10 841:6 842:6 843:4 844:22 845:4 846:14 847:114 848:16 849:18 850:12 851:18 852:14 853:38 854:10 855:18 856:58 857:2 858:4 859:6 860:6 862:8 863:30 864:4 865:24 866:4 867:6 868:20 869:2 870:10 871:6 872:8 873:14 874:16 875:4 876:14 877:16 878:8 879:4 880:6 881:6 882:8 883:2 884:18 885:4 886:2 887:8 888:30 889:4 890:8 891:8 892:10 893:2 894:14 896:36 898:2 899:6 900:20 901:2 902:10 903:16 904:4 905:12 907:4 908:20 910:24 911:24 912:2 913:8 914:8 915:12 916:34 917:12 918:8 920:6 921:14 923:6 924:22 925:12 926:70 927:2 928:6 929:4 930:14 931:26 932:6 933:18 934:20 935:20 936:20 937:4 938:8 939:14 942:20 943:6 944:2 945:4 946:2 947:2 948:18 949:8 951:6 952:6 954:8 955:10 957:44 958:2 959:10 960:12 961:2 962:18 963:6 964:6 965:2 966:4 967:14 968:4 969:6 971:12 973:8 975:20 976:10 977:4 978:12 980:8 981:6 982:10 983:14 984:6 985:42 986:2 987:6 988:6 989:4 990:6 992:2 993:6 995:8 996:22 997:2 999:4 1000:8 1002:8 1003:4 1004:4 1006:24 1007:10 1008:4 1009:22 1010:14 1013:12 1014:2 1016:12 1017:10 1018:4 1020:2 1021:10 1022:8 1023:8 1024:8 1025:4 1026:8 1027:6 1028:2 1029:6 1030:20 1032:6 1033:4 1035:6 1036:2 1037:8 1038:2 1039:20 1040:14 1041:8 1042:6 1044:12 1046:12 1047:20 1048:10 1049:2 1050:4 1051:6 1052:8 1053:2 1054:4 1055:4 1056:4 1057:10 1058:2 1059:4 1060:18 1061:2 1063:26 1064:4 1065:2 1066:14 1067:6 1068:10 1069:18 1070:48 1071:2 1072:4 1073:8 1074:2 1075:10 1078:2 1079:10 1080:4 1081:8 1082:6 1083:2 1084:4 1086:6 1087:4 1088:16 1089:4 1091:2 1092:8 1093:6 1095:6 1096:16 1097:6 1098:40 1099:4 1100:6 1101:40 1102:12 1103:4 1104:4 1105:16 1106:2 1107:4 1108:16 1109:6 1110:4 1111:2 1113:2 1114:10 1115:6 1116:14 1118:2 1119:10 1120:14 1121:4 1122:14 1123:6 1124:6 1125:20 1126:10 1127:8 1128:8 1129:40 1130:6 1131:2 1132:20 1133:4 1134:4 1135:18 1136:10 1137:2 1141:32 1142:6 1143:16 1144:6 1145:4 1146:6 1147:6 1148:2 1149:12 1150:2 1151:8 1152:2 1153:4 1154:8 1155:2 1156:12 1157:4 1158:4 1159:10 1160:4 1161:6 1162:4 1163:12 1164:6 1165:10 1166:4 1167:2 1168:14 1169:2 1170:12 1171:2 1175:4 1177:2 1178:4 1179:8 1180:2 1181:4 1182:8 1183:2 1184:4 1185:10 1186:4 1187:6 1188:8 1189:8 1190:2 1191:2 1194:8 1195:18 1196:4 1197:4 1198:16 1199:2 1200:10 1201:36 1202:14 1203:16 1205:6 1206:16 1207:10 1208:8 1209:18 1210:2 1211:4 1213:10 1214:6 1215:6 1217:8 1218:2 1219:6 1220:32 1221:2 1222:8 1223:2 1224:4 1225:4 1226:6 1227:6 1228:6 1229:6 1230:14 1232:8 1234:10 1235:12 1236:46 1238:22 1239:12 1240:8 1241:4 1242:4 1243:8 1244:10 1245:6 1246:22 1247:6 1248:2 1249:8 1250:24 1251:14 1252:8 1253:4 1254:2 1255:2 1256:2 1257:20 1258:14 1259:2 1260:4 1261:6 1263:8 1265:62 1266:4 1267:10 1268:8 1270:8 1271:12 1273:2 1274:2 1275:10 1276:2 1277:18 1279:2 1280:6 1282:6 1283:10 1284:6 1285:34 1286:8 1287:12 1288:6 1290:8 1291:2 1292:10 1293:6 1294:2 1295:8 1299:4 1300:2 1301:16 1302:2 1303:12 1304:12 1305:6 1307:6 1308:6 1309:2 1311:4 1312:22 1313:6 1314:14 1315:4 1316:14 1317:6 1318:6 1319:6 1320:14 1321:2 1322:4 1323:6 1325:10 1326:8 1327:6 1328:6 1329:6 1331:2 1332:4 1333:10 1334:8 1335:24 1337:10 1338:10 1339:20 1340:4 1341:16 1342:2 1344:8 1345:8 1347:12 1348:6 1349:2 1351:2 1352:8 1353:8 1354:2 1355:8 1356:10 1357:2 1358:2 1359:4 1360:12 1361:10 1362:4 1363:8 1364:8 1365:2 1366:4 1367:6 1368:2 1369:10 1370:4 1371:12 1372:2 1373:16 1374:12 1375:4 1377:14 1378:18 1380:2 1381:10 1382:2 1383:18 1384:6 1385:18 1386:4 1387:6 1388:2 1390:18 1391:2 1392:8 1393:12 1394:2 1395:4 1396:2 1397:4 1398:18 1399:8 1400:12 1402:2 1403:16 1404:16 1405:4 1407:20 1408:6 1409:6 1411:4 1412:6 1413:4 1414:6 1415:8 1417:16 1420:2 1421:12 1422:2 1423:4 1424:14 1425:6 1426:2 1427:8 1428:2 1429:2 1430:10 1431:4 1433:44 1434:10 1435:16 1436:10 1437:12 1439:10 1440:4 1441:20 1442:4 1443:8 1444:4 1445:16 1448:8 1449:8 1450:2 1451:6 1452:2 1453:12 1456:2 1459:8 1460:2 1461:14 1462:2 1463:2 1464:4 1466:6 1468:2 1470:10 1471:16 1473:2 1474:4 1475:18 1476:4 1477:14 1479:6 1480:16 1482:4 1484:4 1485:2 1486:8 1487:8 1488:2 1489:20 1490:4 1493:24 1494:2 1495:8 1496:8 1497:16 1498:4 1499:8 1500:8 1501:10 1502:6 1503:14 1504:8 1505:2 1506:8 1507:2 1508:2 1509:18 1510:6 1512:8 1513:14 1514:6 1515:92 1516:10 1517:4 1518:6 1519:20 1520:6 1522:8 1523:6 1524:2 1525:4 1526:4 1527:8 1528:16 1529:14 1530:6 1532:2 1534:2 1535:6 1536:2 1538:6 1539:4 1540:16 1541:16 1542:2 1543:6 1544:2 1546:10 1547:2 1548:6 1549:2 1550:2 1551:2 1552:6 1553:10 1555:12 1556:6 1557:2 1561:6 1562:4 1564:2 1565:12 1566:4 1567:6 1569:10 1570:4 1573:34 1574:4 1575:4 1576:2 1577:4 1578:6 1579:10 1580:10 1581:10 1582:8 1584:20 1585:2 1586:2 1588:8 1590:8 1591:4 1593:12 1595:4 1596:12 1597:10 1599:2 1601:4 1602:2 1603:16 1606:30 1607:4 1608:16 1612:2 1613:2 1614:6 1615:18 1618:2 1620:2 1621:14 1623:10 1625:2 1626:2 1627:14 1628:2 1629:2 1630:12 1631:8 1632:4 1633:4 1634:6 1637:4 1638:4 1640:6 1642:2 1644:6 1645:8 1646:6 1648:4 1651:10 1652:6 1653:4 1654:6 1655:4 1656:6 1660:8 1661:2 1663:8 1665:4 1666:4 1668:2 1669:4 1670:12 1671:4 1672:2 1674:4 1675:10 1677:6 1681:2 1682:8 1683:4 1684:2 1686:2 1688:6 1689:14 1690:6 1691:4 1692:4 1693:2 1694:4 1695:16 1696:6 1697:4 1698:12 1699:2 1702:4 1703:2 1705:4 1706:8 1707:14 1708:2 1709:4 1711:10 1713:8 1714:10 1715:12 1716:4 1717:6 1718:2 1719:12 1720:8 1722:2 1723:2 1725:2 1726:2 1727:4 1728:18 1729:4 1730:2 1731:16 1734:6 1735:4 1737:14 1738:4 1741:24 1742:6 1743:8 1745:6 1746:16 1747:4 1748:6 1749:6 1750:4 1752:4 1754:2 1755:8 1757:22 1758:8 1759:6 1760:6 1761:4 1762:6 1763:4 1765:24 1766:6 1769:2 1770:2 1771:4 1773:12 1774:4 1775:2 1777:14 1779:4 1780:16 1781:2 1782:4 1783:8 1784:6 1785:10 1791:2 1792:2 1793:22 1794:2 1795:8 1796:6 1797:6 1799:2 1800:10 1801:10 1803:10 1804:4 1805:20 1806:4 1808:14 1809:6 1811:2 1813:4 1814:4 1815:4 1816:8 1817:2 1818:10 1820:6 1821:8 1822:4 1823:4 1825:2 1826:6 1830:8 1832:2 1833:2 1834:2 1835:8 1836:30 1837:10 1838:2 1839:4 1840:4 1841:14 1842:2 1844:8 1845:6 1846:8 1849:4 1853:2 1854:6 1855:2 1856:4 1858:4 1859:6 1860:4 1861:4 1862:2 1865:18 1866:2 1869:2 1870:18 1871:8 1872:12 1873:12 1874:8 1875:4 1876:4 1877:6 1879:2 1881:6 1884:6 1885:2 1888:8 1890:6 1892:4 1893:2 1897:2 1899:12 1900:10 1901:2 1902:2 1904:6 1905:4 1908:2 1909:2 1910:4 1911:2 1912:6 1913:4 1914:42 1916:6 1918:2 1922:2 1923:8 1924:12 1927:8 1928:58 1929:4 1930:4 1932:34 1933:6 1934:2 1935:2 1936:10 1937:4 1939:20 1940:4 1941:6 1944:6 1948:2 1949:2 1951:20 1952:4 1953:4 1955:2 1956:4 1957:4 1958:6 1961:12 1962:8 1963:18 1964:26 1965:2 1966:6 1969:4 1970:4 1971:8 1972:6 1973:10 1974:6 1975:6 1977:6 1979:2 1981:10 1982:4 1985:16 1986:2 1988:2 1989:2 1990:6 1991:4 1992:2 1993:6 1994:12 1995:8 2000:10 2001:8 2004:8 2005:12 2006:4 2007:10 2011:10 2013:2 2016:2 2017:2 2018:2 2019:2 2020:2 2021:2 2022:2 2023:8 2026:2 2028:8 2029:28 2030:18 2031:6 2032:4 2033:2 2034:8 2035:2 2036:2 2037:4 2038:6 2040:8 2041:10 2042:14 2043:2 2044:2 2045:6 2047:2 2050:4 2051:2 2052:2 2053:10 2054:4 2057:6 2059:8 2060:2 2061:4 2063:4 2064:6 2067:4 2068:2 2069:2 2070:10 2071:2 2073:8 2074:2 2075:12 2076:6 2077:12 2078:2 2081:6 2082:4 2083:4 2084:4 2085:2 2087:2 2088:2 2089:12 2090:4 2092:2 2093:6 2095:2 2097:8 2098:2 2100:4 2101:2 2102:10 2103:2 2105:14 2106:2 2107:10 2109:4 2110:4 2112:2 2113:2 2116:8 2117:6 2118:4 2119:4 2122:20 2124:2 2125:10 2127:2 2128:2 2130:4 2131:10 2133:14 2134:2 2135:4 2136:8 2139:4 2141:8 2143:4 2144:2 2146:6 2147:8 2149:2 2150:2 2151:8 2152:16 2153:2 2154:6 2155:6 2156:2 2157:6 2158:8 2160:6 2162:12 2163:4 2164:10 2165:4 2166:2 2169:4 2171:6 2172:6 2174:6 2175:2 2177:8 2178:12 2179:20 2180:14 2181:2 2182:14 2183:2 2184:10 2187:10 2189:4 2191:6 2193:6 2194:4 2195:2 2197:6 2199:10 2205:2 2206:4 2209:8 2210:6 2211:6 2213:2 2216:8 2217:4 2218:4 2219:4 2220:12 2222:14 2223:8 2225:4 2227:2 2230:20 2231:4 2232:4 2234:4 2236:2 2237:38 2239:14 2240:6 2241:2 2242:2 2243:12 2244:10 2245:6 2248:4 2251:2 2252:6 2255:18 2257:10 2259:2 2260:6 2261:6 2262:4 2263:8 2264:2 2265:2 2266:4 2267:4 2269:2 2270:2 2271:8 2273:4 2274:2 2275:4 2276:4 2277:4 2279:6 2280:4 2281:2 2283:4 2284:4 2285:10 2286:22 2287:6 2289:10 2291:4 2292:8 2294:4 2296:4 2298:24 2299:4 2301:4 2303:10 2305:2 2307:2 2308:4 2309:2 2310:4 2311:6 2312:12 2313:2 2314:12 2315:6 2317:38 2318:6 2321:4 2322:8 2323:10 2324:6 2325:2 2326:6 2327:6 2328:4 2330:10 2332:4 2335:16 2336:2 2337:8 2338:8 2339:4 2340:2 2345:14 2346:6 2347:4 2349:8 2351:8 2358:6 2359:4 2360:2 2361:6 2362:2 2364:2 2365:4 2366:2 2367:4 2370:4 2371:2 2375:10 2376:4 2377:4 2378:2 2380:4 2381:4 2382:4 2383:4 2384:2 2385:8 2386:12 2387:8 2389:4 2390:6 2391:4 2394:2 2396:2 2397:2 2398:8 2399:2 2402:4 2403:8 2404:6 2405:4 2406:12 2407:8 2408:8 2409:2 2410:8 2411:2 2412:2 2414:4 2416:8 2418:8 2419:2 2420:4 2421:6 2423:12 2426:2 2429:8 2430:6 2431:2 2433:14 2436:2 2437:8 2441:4 2443:2 2444:2 2447:4 2448:2 2452:2 2453:6 2455:4 2457:12 2459:4 2460:4 2464:2 2465:4 2466:4 2469:8 2471:2 2473:2 2476:6 2477:2 2478:2 2480:6 2481:2 2482:2 2483:4 2484:2 2485:2 2486:4 2491:4 2492:4 2494:2 2495:36 2496:6 2500:2 2501:12 2502:2 2503:2 2506:14 2508:4 2510:2 2512:4 2513:2 2514:4 2516:6 2518:2 2522:2 2526:6 2529:2 2530:6 2531:2 2533:4 2534:32 2536:4 2539:2 2540:4 2541:8 2543:2 2544:2 2546:2 2547:4 2548:8 2549:2 2550:2 2552:2 2553:4 2554:2 2555:4 2556:2 2557:2 2558:2 2559:4 2560:10 2562:2 2564:2 2566:2 2569:2 2570:4 2572:36 2573:2 2574:2 2575:12 2576:4 2577:2 2581:4 2582:4 2583:2 2584:2 2586:2 2587:6 2589:2 2590:2 2591:2 2592:4 2593:2 2594:12 2595:8 2596:2 2597:2 2598:6 2599:14 2604:6 2606:2 2608:6 2611:2 2613:6 2614:6 2616:4 2617:2 2619:2 2620:6 2621:2 2622:12 2624:4 2625:2 2627:2 2628:2 2633:2 2634:2 2637:6 2640:2 2642:2 2643:4 2645:2 2646:12 2647:4 2651:6 2652:32 2653:18 2655:30 2656:2 2660:2 2661:2 2663:8 2664:4 2665:2 2666:2 2670:2 2671:2 2672:10 2674:6 2676:6 2677:20 2678:8 2679:2 2680:10 2682:2 2683:8 2684:4 2686:4 2687:4 2688:6 2691:2 2693:2 2696:2 2697:2 2698:10 2699:6 2700:6 2702:2 2703:4 2704:2 2705:4 2706:2 2709:6 2710:2 2711:8 2713:12 2717:2 2718:4 2719:2 2720:4 2722:2 2723:4 2724:4 2725:8 2726:2 2727:6 2729:2 2730:2 2731:6 2732:4 2739:2 2740:2 2741:6 2742:6 2743:2 2744:6 2745:4 2747:6 2750:2 2752:2 2754:12 2755:2 2757:2 2758:6 2760:4 2762:10 2764:2 2765:2 2766:70 2768:2 2769:4 2772:4 2773:6 2774:2 2776:2 2777:12 2780:10 2782:14 2784:2 2785:2 2786:2 2787:10 2788:6 2789:2 2790:10 2791:4 2793:2 2794:4 2797:10 2799:4 2800:2 2801:10 2803:14 2806:8 2807:2 2810:6 2811:2 2812:6 2813:2 2817:4 2818:2 2820:2 2822:2 2823:2 2825:4 2826:2 2827:2 2828:2 2831:2 2834:2 2835:4 2836:4 2840:2 2841:14 2842:6 2843:2 2844:2 2847:2 2848:8 2850:6 2853:2 2858:2 2859:4 2860:4 2862:4 2869:2 2872:10 2873:4 2875:8 2876:4 2877:12 2879:2 2881:8 2882:6 2883:6 2884:2 2885:6 2886:2 2887:6 2891:2 2893:4 2894:2 2896:2 2897:18 2900:4 2901:12 2906:2 2907:16 2908:6 2909:2 2910:10 2915:2 2916:2 2917:8 2921:4 2922:4 2924:12 2925:4 2926:4 2927:48 2928:2 2929:2 2930:2 2933:6 2934:18 2935:8 2936:6 2938:4 2939:10 2940:2 2944:6 2949:2 2953:2 2956:6 2957:4 2958:8 2959:8 2960:2 2961:4 2967:4 2969:2 2970:2 2974:2 2976:14 2977:10 2979:4 2982:2 2983:6 2985:10 2986:2 2987:4 2988:2 2991:2 2992:4 2994:4 2995:2 2996:10 2997:2 2998:10 2999:2 3000:20 3001:2 3002:4 3003:6 3005:2 3010:8 3013:2 3018:18 3019:2 3020:16 3021:4 3022:4 3026:4 3027:4 3028:2 3031:2 3033:4 3034:2 3036:2 3038:4 3039:2 3040:4 3041:2 3042:16 3044:2 3045:8 3046:2 3049:8 3050:6 3051:4 3053:4 3054:2 3055:2 3057:8 3058:4 3060:2 3061:6 3062:2 3064:2 3065:2 3066:2 3067:4 3071:2 3074:4 3075:2 3076:2 3080:2 3082:8 3083:6 3084:2 3088:2 3089:8 3090:4 3091:8 3092:8 3093:4 3095:6 3097:2 3098:6 3099:2 3100:2 3102:6 3103:6 3104:2 3106:4 3108:8 3109:2 3110:2 3112:6 3113:8 3114:2 3115:16 3116:4 3117:6 3118:2 3120:10 3122:2 3127:6 3128:2 3129:2 3130:2 3131:8 3132:2 3133:2 3136:8 3139:2 3140:2 3141:6 3143:8 3144:2 3145:8 3146:2 3147:2 3149:6 3150:2 3154:4 3155:4 3163:8 3165:2 3171:4 3174:4 3176:12 3178:4 3179:6 3181:2 3182:4 3183:14 3186:4 3189:4 3192:4 3193:6 3195:4 3197:4 3199:4 3200:4 3201:4 3205:2 3206:4 3208:6 3209:2 3210:8 3211:2 3212:4 3213:18 3215:2 3216:6 3219:8 3223:2 3224:2 3227:2 3228:6 3232:2 3233:2 3235:2 3238:2 3240:6 3241:2 3243:2 3245:4 3246:2 3247:6 3249:4 3250:8 3251:4 3252:4 3253:18 3254:2 3257:2 3259:6 3260:2 3261:2 3262:2 3263:8 3265:2 3268:4 3269:12 3272:6 3273:4 3275:2 3277:10 3279:4 3280:6 3281:6 3282:14 3283:2 3284:6 3285:4 3286:2 3289:12 3290:2 3291:4 3292:6 3293:2 3294:4 3295:2 3297:4 3299:4 3301:2 3302:8 3304:2 3306:2 3309:2 3312:2 3314:2 3316:8 3318:2 3319:2 3320:2 3321:2 3322:4 3324:4 3325:2 3330:4 3334:4 3335:2 3337:6 3343:6 3346:2 3350:4 3353:10 3355:2 3356:4 3357:4 3358:2 3362:4 3363:6 3364:8 3365:2 3368:8 3369:2 3373:4 3377:2 3379:2 3380:4 3383:4 3384:6 3385:2 3386:2 3387:2 3389:8 3391:6 3392:2 3393:2 3397:24 3399:4 3400:14 3407:4 3409:4 3410:2 3411:2 3412:4 3413:2 3414:8 3420:6 3423:2 3424:2 3426:16 3427:6 3428:4 3429:6 3430:6 3432:2 3434:8 3439:2 3441:12 3442:4 3444:2 3445:34 3446:4 3448:8 3449:4 3450:6 3453:6 3459:2 3461:2 3465:4 3469:2 3470:2 3471:16 3477:6 3478:4 3480:14 3482:4 3483:4 3485:2 3486:2 3487:6 3490:2 3491:2 3492:6 3493:2 3495:2 3497:8 3500:2 3503:14 3504:18 3505:4 3506:4 3507:2 3508:2 3510:6 3511:2 3512:2 3514:2 3515:4 3521:2 3525:10 3528:2 3529:4 3530:2 3535:4 3537:6 3538:6 3541:2 3544:2 3545:8 3548:2 3550:6 3554:2 3556:42 3557:2 3558:2 3559:2 3561:4 3564:4 3565:2 3567:4 3568:4 3575:2 3576:4 3577:2 3578:2 3579:6 3584:4 3586:8 3589:2 3591:2 3592:2 3593:2 3594:14 3596:2 3597:12 3598:2 3600:4 3605:2 3610:2 3611:2 3614:4 3615:2 3616:4 3617:8 3620:2 3621:18 3622:4 3624:8 3627:4 3628:6 3630:4 3631:2 3633:6 3635:6 3636:2 3638:2 3639:4 3641:2 3642:2 3643:6 3645:2 3647:6 3648:8 3650:2 3653:4 3654:4 3655:10 3661:20 3662:8 3664:2 3665:2 3666:14 3667:4 3669:2 3672:2 3676:2 3677:4 3678:4 3680:2 3682:2 3683:4 3684:2 3685:8 3687:2 3688:2 3689:8 3691:2 3695:2 3696:2 3697:4 3698:14 3699:2 3700:6 3704:2 3705:4 3706:2 3708:6 3709:6 3711:2 3715:4 3716:14 3721:2 3723:4 3727:2 3728:2 3729:6 3731:6 3735:8 3738:8 3739:8 3740:6 3742:2 3744:2 3745:2 3747:2 3748:2 3749:2 3750:4 3751:2 3754:4 3755:2 3756:6 3759:8 3761:2 3764:6 3765:4 3767:4 3769:6 3770:6 3771:2 3773:10 3776:4 3779:14 3782:2 3784:2 3785:6 3786:12 3787:2 3788:2 3790:2 3791:8 3792:4 3793:8 3794:2 3795:10 3797:2 3800:2 3801:2 3802:6 3804:4 3805:6 3806:2 3808:4 3810:4 3811:2 3812:4 3816:2 3818:8 3820:2 3821:2 3823:2 3824:2 3825:22 3826:2 3827:2 3830:2 3831:2 3832:2 3839:6 3840:2 3842:8 3843:4 3844:14 3845:2 3848:2 3850:2 3851:2 3853:12 3855:6 3856:4 3857:2 3864:4 3865:4 3868:2 3871:12 3874:4 3875:16 3878:2 3880:2 3881:6 3884:2 3885:4 3887:2 3889:6 3890:4 3891:2 3892:4 3895:2 3896:4 3900:10 3902:8 3906:2 3910:2 3911:2 3914:2 3916:4 3919:4 3921:4 3922:2 3925:2 3934:2 3935:2 3940:2 3941:6 3942:4 3943:16 3946:2 3947:2 3948:2 3951:2 3952:4 3953:6 3955:2 3961:2 3963:2 3964:8 3965:4 3967:2 3970:2 3974:2 3976:2 3978:4 3982:2 3984:2 3985:4 3987:4 3988:6 3992:4 3999:8 4000:2 4005:18 4006:2 4009:4 4010:4 4012:4 4013:4 4021:2 4023:2 4025:2 4026:2 4027:2 4028:2 4032:6 4034:4 4037:2 4038:2 4042:2 4045:8 4046:4 4050:2 4052:4 4053:12 4054:6 4062:4 4064:4 4065:2 4068:2 4069:2 4070:4 4072:2 4076:2 4078:2 4081:2 4083:2 4086:2 4088:4 4091:6 4098:2 4099:6 4102:4 4104:2 4105:2 4106:8 4108:2 4110:2 4113:4 4114:4 4117:4 4120:2 4121:4 4122:4 4124:2 4126:6 4129:2 4130:2 4133:4 4137:2 4139:6 4140:4 4141:10 4145:6 4146:8 4148:2 4149:2 4150:6 4153:2 4154:2 4157:4 4158:2 4160:4 4163:14 4164:2 4165:2 4166:2 4168:2 4173:2 4177:4 4178:2 4181:2 4182:6 4183:2 4184:2 4187:2 4189:2 4190:4 4192:4 4194:2 4195:2 4196:2 4198:2 4199:2 4200:2 4201:2 4203:10 4204:2 4206:4 4209:6 4210:2 4211:4 4212:4 4213:2 4214:4 4215:2 4218:4 4219:2 4221:2 4225:2 4227:12 4228:6 4230:2 4231:4 4234:12 4236:2 4238:2 4240:2 4244:2 4246:4 4247:2 4248:4 4249:4 4250:8 4252:6 4253:2 4254:2 4255:6 4259:6 4261:2 4262:2 4263:2 4265:4 4267:6 4268:18 4271:2 4274:4 4275:2 4277:4 4280:4 4282:2 4286:2 4292:14 4293:2 4296:12 4297:6 4299:6 4302:2 4303:6 4309:2 4311:12 4312:2 4316:2 4317:8 4319:6 4322:4 4326:4 4334:4 4335:2 4336:4 4337:4 4339:4 4340:4 4344:2 4345:6 4346:8 4348:6 4349:2 4351:2 4352:8 4353:2 4354:2 4355:4 4358:2 4364:2 4365:8 4366:12 4367:2 4368:2 4370:2 4375:2 4378:2 4382:6 4383:2 4384:10 4385:4 4387:16 4388:2 4390:4 4391:2 4394:6 4395:2 4402:4 4403:2 4404:4 4405:2 4408:2 4411:4 4412:2 4415:8 4417:2 4425:10 4428:2 4432:8 4434:4 4436:2 4437:2 4439:4 4446:6 4447:16 4448:2 4451:2 4453:2 4454:2 4460:2 4461:4 4469:2 4474:2 4481:4 4485:2 4486:8 4488:4 4494:2 4496:2 4498:18 4501:4 4504:4 4505:2 4507:2 4509:2 4510:4 4516:2 4519:4 4521:4 4529:4 4530:2 4533:22 4535:8 4537:4 4538:2 4539:10 4540:2 4541:2 4545:4 4549:2 4552:2 4553:8 4554:4 4556:4 4557:6 4558:2 4559:2 4561:2 4562:4 4563:2 4564:2 4568:2 4572:2 4574:2 4576:2 4577:2 4579:4 4580:4 4582:2 4583:4 4589:12 4591:2 4593:2 4594:2 4595:6 4596:2 4597:4 4598:2 4600:2 4602:12 4603:6 4604:4 4605:2 4607:2 4609:2 4611:4 4612:4 4613:2 4615:2 4619:2 4624:2 4625:2 4626:2 4629:2 4632:4 4633:4 4634:2 4638:2 4640:2 4643:2 4645:2 4647:14 4648:2 4652:8 4653:2 4658:2 4659:2 4662:8 4664:4 4665:12 4666:8 4668:4 4673:2 4675:2 4676:6 4677:2 4680:30 4682:4 4683:2 4685:2 4687:2 4688:8 4693:2 4694:2 4697:6 4704:6 4707:2 4709:6 4710:2 4713:8 4718:2 4719:24 4721:6 4722:2 4724:2 4726:2 4727:2 4728:2 4734:2 4735:2 4737:6 4741:2 4742:4 4745:6 4746:4 4748:2 4751:6 4754:2 4758:2 4759:2 4761:4 4762:2 4767:4 4773:4 4775:4 4776:4 4777:2 4782:2 4783:2 4788:2 4792:6 4793:2 4794:2 4795:2 4797:2 4801:4 4804:2 4809:2 4810:2 4813:2 4816:4 4817:4 4821:2 4824:8 4825:14 4827:2 4828:2 4829:2 4830:2 4831:2 4834:2 4836:10 4839:2 4842:2 4843:2 4846:2 4847:2 4848:4 4851:8 4852:4 4857:4 4858:12 4861:2 4862:2 4865:4 4866:2 4867:4 4870:4 4871:2 4873:2 4875:4 4879:16 4880:2 4882:2 4884:2 4885:4 4887:2 4888:4 4890:2 4891:2 4893:4 4896:38 4900:2 4903:4 4909:2 4910:2 4912:2 4914:2 4916:8 4919:2 4920:2 4921:2 4930:2 4933:2 4935:8 4936:2 4939:2 4944:2 4946:2 4951:8 4952:4 4954:6 4955:4 4956:2 4960:2 4966:2 4967:2 4969:2 4975:4 4976:2 4978:2 4979:2 4980:2 4981:2 4989:8 4990:6 4996:12 5000:2 5002:4 5003:2 5005:2 5007:4 5008:2 5009:6 5010:2 5013:2 5014:6 5016:8 5017:2 5023:2 5034:2 5037:2 5039:6 5042:2 5043:2 5044:6 5045:2 5050:2 5051:2 5053:4 5056:2 5060:4 5061:2 5063:4 5064:2 5067:2 5069:2 5071:2 5074:2 5075:2 5078:2 5080:2 5081:4 5082:2 5084:4 5087:6 5090:2 5095:12 5098:4 5100:14 5102:2 5106:4 5111:2 5112:2 5119:2 5122:4 5125:2 5127:2 5132:2 5138:2 5140:2 5142:4 5143:4 5145:8 5147:2 5149:6 5150:2 5152:2 5153:2 5154:4 5155:2 5159:2 5166:2 5167:2 5178:4 5181:2 5182:2 5184:2 5193:4 5196:2 5199:4 5206:6 5207:2 5208:4 5209:2 5215:4 5217:4 5220:2 5226:10 5227:2 5228:8 5230:4 5231:8 5233:4 5236:2 5242:6 5243:14 5251:4 5255:2 5256:2 5259:6 5260:10 5262:2 5263:4 5265:2 5267:6 5274:4 5277:2 5281:4 5283:4 5286:8 5287:8 5300:2 5303:8 5307:2 5309:2 5311:6 5315:2 5319:2 5320:6 5325:2 5327:2 5336:2 5347:2 5352:2 5353:4 5356:2 5357:2 5361:2 5362:2 5363:8 5364:2 5368:2 5372:2 5374:8 5376:2 5382:2 5383:4 5387:10 5391:2 5392:4 5393:2 5396:4 5397:8 5404:2 5405:2 5407:6 5411:2 5416:4 5417:2 5419:2 5421:4 5424:2 5427:4 5430:4 5432:2 5434:4 5435:2 5437:2 5438:2 5441:6 5445:8 5447:2 5449:8 5452:2 5454:2 5455:2 5456:2 5457:4 5463:2 5464:2 5468:2 5470:2 5471:2 5473:2 5474:2 5476:6 5480:6 5488:2 5490:2 5493:2 5500:4 5504:2 5508:22 5509:2 5513:2 5514:6 5515:2 5516:2 5519:2 5525:2 5535:2 5544:2 5547:2 5551:2 5553:2 5554:4 5557:2 5562:2 5563:2 5565:2 5568:4 5571:2 5573:4 5575:4 5576:4 5580:6 5586:2 5587:2 5588:2 5593:2 5605:2 5608:8 5609:2 5616:4 5617:2 5619:2 5625:2 5631:6 5637:2 5638:4 5639:2 5644:2 5647:2 5656:2 5657:2 5658:2 5665:4 5666:2 5668:8 5669:2 5671:4 5672:2 5673:6 5677:4 5678:2 5679:4 5681:2 5686:2 5688:2 5698:2 5705:4 5709:4 5710:4 5711:4 5716:2 5723:2 5724:2 5726:8 5728:2 5729:2 5730:2 5732:4 5735:10 5739:2 5740:2 5743:2 5744:2 5746:2 5748:2 5752:6 5753:2 5760:4 5765:4 5766:8 5767:4 5768:2 5769:6 5772:2 5775:4 5779:4 5781:2 5785:2 5790:2 5792:8 5794:4 5798:12 5801:2 5802:2 5803:4 5804:2 5805:2 5807:2 5810:2 5811:2 5812:10 5813:2 5816:4 5819:2 5821:2 5828:6 5830:8 5832:8 5833:6 5834:2 5843:6 5846:2 5848:2 5849:2 5853:2 5864:8 5865:2 5869:2 5870:2 5874:4 5878:6 5879:4 5885:2 5897:2 5904:2 5908:6 5916:2 5919:2 5925:2 5926:2 5930:10 5932:2 5936:2 5938:6 5939:2 5941:2 5942:2 5947:2 5961:4 5965:2 5966:2 5968:2 5969:4 5973:4 5979:2 5981:2 5984:2 5985:2 5988:2 5994:2 5996:2 6001:2 6006:8 6008:2 6010:2 6012:4 6013:2 6014:2 6018:8 6022:4 6027:6 6030:2 6031:2 6032:2 6033:4 6036:2 6037:4 6039:2 6040:4 6043:8 6047:2 6048:2 6049:2 6053:2 6060:2 6061:2 6063:2 6066:6 6067:6 6071:2 6077:2 6082:2 6083:4 6090:2 6092:2 6096:4 6097:4 6102:2 6114:2 6115:2 6121:2 6122:2 6124:6 6137:2 6141:2 6142:2 6145:4 6146:4 6159:2 6160:14 6161:2 6167:4 6168:2 6172:4 6179:2 6181:2 6183:2 6198:2 6199:2 6201:2 6202:6 6204:2 6205:4 6206:2 6219:2 6222:2 6224:2 6227:2 6229:4 6230:6 6231:4 6235:2 6248:2 6250:2 6252:2 6254:4 6258:4 6260:4 6262:2 6265:2 6286:2 6290:2 6291:2 6296:2 6299:2 6302:4 6303:2 6305:2 6307:2 6308:6 6310:2 6312:4 6316:2 6328:2 6330:6 6335:2 6354:2 6359:4 6363:6 6367:4 6369:2 6372:2 6373:2 6381:2 6387:2 6399:2 6400:2 6401:2 6408:2 6417:2 6421:2 6424:2 6427:6 6428:2 6431:2 6435:2 6442:4 6444:2 6448:6 6449:2 6452:4 6458:4 6460:4 6467:2 6470:2 6473:4 6478:2 6485:2 6492:2 6495:6 6499:2 6500:2 6503:6 6504:2 6505:2 6507:2 6508:2 6511:2 6514:2 6519:8 6520:4 6526:2 6530:2 6531:2 6534:2 6542:2 6543:6 6549:12 6552:6 6564:4 6565:2 6566:2 6568:6 6570:2 6573:2 6575:2 6577:2 6578:2 6583:2 6586:2 6587:10 6589:2 6591:2 6592:4 6593:4 6603:4 6605:2 6606:6 6609:4 6621:2 6622:2 6624:4 6626:2 6629:2 6630:2 6634:2 6640:4 6646:2 6648:6 6654:10 6657:2 6658:4 6664:2 6668:10 6670:6 6675:2 6677:8 6678:12 6686:2 6690:2 6701:2 6702:2 6707:2 6710:2 6711:2 6717:2 6718:2 6719:22 6720:4 6723:2 6725:4 6730:6 6736:4 6739:6 6740:2 6750:4 6758:12 6766:2 6769:2 6770:4 6775:2 6781:2 6783:2 6786:2 6788:2 6791:2 6793:2 6794:2 6800:10 6801:6 6806:2 6808:2 6811:2 6812:2 6820:2 6822:4 6823:2 6833:4 6841:2 6842:2 6843:2 6845:2 6848:2 6852:2 6854:4 6858:2 6860:2 6861:2 6863:8 6870:2 6874:2 6876:4 6883:4 6885:2 6888:10 6892:2 6894:2 6901:2 6904:2 6906:4 6908:34 6910:2 6914:2 6916:2 6920:2 6922:14 6924:2 6928:2 6930:4 6931:2 6934:2 6937:2 6945:4 6946:2 6947:2 6948:2 6953:2 6960:2 6963:2 6973:2 6982:2 6984:2 6988:2 6994:2 7003:2 7012:4 7016:4 7020:2 7024:4 7028:4 7036:4 7042:2 7044:2 7046:4 7048:2 7053:2 7055:2 7065:2 7066:2 7069:2 7072:16 7077:2 7080:2 7082:2 7086:2 7089:2 7099:2 7100:2 7103:2 7107:2 7108:2 7119:2 7120:20 7131:2 7136:2 7137:2 7139:2 7144:14 7146:4 7149:4 7157:2 7159:2 7160:2 7161:6 7162:6 7163:2 7166:2 7169:8 7173:2 7176:6 7179:4 7184:2 7185:2 7199:2 7200:2 7203:4 7211:2 7215:2 7221:2 7228:4 7231:2 7235:10 7239:2 7243:2 7245:2 7247:2 7251:2 7255:6 7257:2 7261:6 7270:2 7272:2 7273:6 7276:8 7280:2 7285:4 7286:2 7316:2 7317:2 7318:2 7320:2 7329:4 7331:4 7338:2 7341:2 7348:4 7351:2 7352:4 7355:2 7356:2 7368:2 7369:2 7371:2 7372:2 7374:2 7375:6 7377:2 7380:2 7382:2 7384:2 7394:2 7396:2 7402:8 7406:2 7408:4 7411:2 7420:2 7422:2 7423:2 7425:2 7428:4 7437:10 7439:2 7440:2 7448:2 7452:2 7454:2 7459:2 7463:2 7472:2 7477:2 7479:4 7480:4 7484:2 7489:2 7492:4 7495:2 7497:4 7502:4 7507:2 7509:4 7512:2 7517:2 7518:2 7520:2 7527:2 7534:6 7535:4 7536:2 7541:2 7549:4 7556:2 7557:2 7558:2 7559:2 7563:6 7571:26 7573:2 7574:2 7576:2 7577:2 7578:2 7581:2 7584:2 7585:4 7586:4 7590:6 7592:2 7594:2 7597:2 7599:2 7600:4 7604:4 7607:2 7622:12 7629:2 7630:2 7634:2 7635:2 7636:2 7647:2 7650:6 7657:2 7659:4 7665:2 7671:2 7679:12 7688:2 7695:2 7712:2 7720:4 7728:4 7729:4 7733:2 7740:2 7741:2 7746:2 7749:2 7750:2 7751:4 7755:2 7758:6 7764:2 7769:2 7771:6 7772:4 7774:2 7782:2 7788:2 7792:8 7794:2 7813:6 7818:10 7819:6 7834:6 7839:2 7841:10 7843:2 7855:2 7857:2 7877:4 7883:4 7885:2 7889:2 7893:14 7896:12 7905:2 7906:2 7916:2 7919:2 7926:2 7927:2 7929:2 7931:4 7935:2 7947:2 7948:4 7957:2 7962:2 7964:2 7965:2 7973:2 7975:2 7976:4 7978:2 7981:2 7984:4 7986:10 7990:2 7997:14 7998:4 8000:4 8005:2 8008:2 8011:4 8017:2 8018:2 8020:4 8024:2 8028:2 8039:2 8048:8 8049:2 8050:4 8054:2 8058:6 8060:2 8061:4 8065:2 8066:2 8067:2 8072:4 8074:6 8076:2 8081:2 8083:2 8084:2 8090:2 8092:10 8093:2 8108:2 8116:2 8122:6 8123:14 8128:2 8132:2 8138:2 8141:2 8142:4 8147:2 8148:4 8163:2 8164:2 8171:2 8172:2 8178:2 8185:8 8194:2 8210:6 8212:2 8221:2 8222:4 8223:2 8233:6 8237:2 8238:2 8247:4 8248:2 8261:2 8263:2 8264:4 8268:8 8269:8 8281:2 8287:2 8288:2 8293:2 8294:2 8295:4 8296:2 8309:2 8312:2 8316:4 8322:2 8328:4 8329:12 8347:4 8351:2 8353:4 8355:2 8356:2 8357:2 8362:18 8367:10 8368:6 8373:4 8374:4 8377:2 8381:2 8387:2 8388:4 8389:2 8393:6 8403:2 8407:4 8414:2 8418:2 8426:2 8427:2 8429:2 8431:2 8435:2 8436:2 8444:4 8448:4 8462:2 8468:4 8469:4 8472:6 8485:2 8494:2 8495:2 8500:2 8503:6 8507:2 8517:4 8519:2 8523:4 8525:2 8526:10 8531:2 8534:4 8537:2 8545:8 8552:6 8554:6 8559:4 8561:2 8564:6 8567:4 8575:2 8582:4 8584:6 8585:2 8591:2 8592:2 8603:4 8611:2 8647:2 8648:2 8650:10 8651:2 8661:8 8673:2 8674:4 8678:2 8679:2 8698:2 8702:6 8706:6 8723:4 8725:2 8732:2 8734:4 8741:2 8748:2 8749:2 8755:2 8767:2 8768:2 8769:2 8775:2 8776:4 8781:2 8782:6 8803:4 8809:4 8810:8 8816:6 8820:4 8821:2 8824:2 8827:4 8828:4 8831:2 8832:6 8840:8 8850:2 8857:2 8861:2 8864:2 8867:2 8871:2 8877:2 8882:4 8887:2 8890:4 8891:2 8917:2 8920:2 8921:2 8926:2 8930:4 8936:2 8948:4 8953:2 8957:12 8972:2 8973:2 8988:2 8989:2 8991:2 8993:2 8998:2 8999:4 9011:6 9017:2 9030:2 9041:8 9045:2 9047:2 9050:2 9052:6 9053:4 9059:4 9062:4 9063:4 9065:4 9068:4 9085:4 9086:4 9092:2 9093:2 9099:8 9100:8 9104:2 9109:2 9111:8 9118:2 9136:2 9137:6 9138:4 9143:2 9149:2 9152:2 9176:2 9179:2 9190:4 9192:4 9199:2 9200:4 9208:2 9213:2 9217:12 9222:2 9229:2 9230:4 9235:4 9237:2 9239:2 9242:4 9250:2 9252:2 9256:2 9262:2 9270:2 9275:2 9276:4 9277:2 9278:2 9284:2 9292:2 9299:2 9302:2 9303:2 9305:4 9308:2 9327:2 9331:2 9338:2 9339:4 9341:2 9346:2 9357:2 9359:2 9371:2 9374:2 9375:2 9380:2 9381:4 9384:2 9385:2 9391:2 9398:2 9402:10 9404:2 9406:2 9408:6 9414:2 9417:4 9420:2 9425:2 9433:2 9441:2 9451:6 9452:2 9455:2 9458:8 9461:2 9462:6 9473:20 9476:2 9483:2 9509:2 9510:4 9530:2 9542:4 9559:2 9565:4 9567:2 9569:2 9570:2 9573:2 9583:2 9596:4 9598:2 9601:6 9605:2 9608:2 9610:2 9612:2 9626:4 9627:6 9628:4 9633:2 9634:2 9641:2 9647:2 9657:2 9663:2 9665:8 9668:2 9669:2 9670:4 9671:8 9674:6 9676:2 9687:4 9692:2 9693:4 9705:2 9707:2 9711:4 9721:2 9725:2 9726:2 9732:2 9742:10 9743:2 9745:2 9752:4 9754:2 9761:4 9762:2 9764:6 9765:4 9776:2 9777:2 9782:2 9783:2 9789:2 9791:2 9792:2 9796:4 9809:2 9818:2 9823:4 9824:2 9835:8 9839:2 9841:4 9842:2 9849:2 9852:2 9858:4 9860:2 9861:4 9884:2 9889:2 9904:2 9922:2 9924:4 9927:2 9941:2 9943:2 9947:2 9950:2 9951:2 9960:2 9964:2 9974:4 9976:2 9978:2 9992:2 9993:2 
0.4002944377444806 1:294 2:186 3:106 4:60 5:138 6:86 7:104 8:240 9:150 10:128 11:116 12:352 13:88 14:334 15:280 16:26 17:126 18:118 19:84 20:44 21:70 22:20 23:60 24:76 25:56 26:118 27:86 28:38 29:56 30:36 31:22 32:210 33:74 34:94 35:56 36:98 37:24 38:12 39:48 40:72 41:36 42:50 43:92 44:38 45:46 46:64 47:82 48:80 49:68 50:108 51:50 52:30 53:372 54:36 55:164 56:60 57:38 58:4 59:140 60:32 61:44 62:28 63:26 64:130 65:130 66:106 67:96 68:56 69:14 70:36 71:28 72:108 73:88 74:90 75:10 76:14 77:42 78:46 79:118 80:74 81:38 82:26 83:6 84:52 85:52 86:72 87:6 88:142 89:72 90:34 91:24 92:156 93:110 94:16 95:76 96:56 97:44 98:32 99:26 100:10 101:36 102:22 103:86 104:38 105:46 106:22 107:22 108:156 109:20 110:12 111:34 112:4 113:16 114:26 115:16 116:16 117:18 118:32 119:120 120:20 121:100 122:86 123:58 124:34 125:40 126:22 127:26 128:36 129:16 130:68 131:46 132:20 133:58 134:22 135:210 136:28 137:22 138:30 139:4 140:14 141:226 142:48 143:8 144:162 145:24 146:14 147:34 148:66 149:58 150:38 151:12 152:38 153:28 154:40 155:12 156:42 157:24 158:48 159:58 160:86 161:92 162:38 163:16 164:28 165:12 166:132 167:12 168:60 169:26 170:6 171:20 172:64 173:92 174:54 175:34 176:8 177:34 178:40 179:38 180:4 181:2 182:40 183:22 184:32 185:2 186:42 187:66 188:20 189:8 190:32 191:34 192:42 193:18 194:42 195:278 196:32 197:12 198:10 199:58 200:14 201:22 202:26 203:50 204:20 205:10 206:10 207:130 208:50 210:28 211:14 212:198 213:40 214:154 215:16 216:66 217:80 218:44 219:212 220:24 221:36 222:2 223:8 224:34 225:56 226:36 227:10 228:14 229:86 230:34 231:154 232:24 233:22 234:50 235:38 236:26 237:20 238:6 239:2 240:30 241:10 242:12 243:42 244:40 245:22 246:20 247:8 248:30 249:16 250:30 251:40 252:10 253:20 254:38 255:18 256:84 257:10 258:2 259:6 260:38 261:30 262:36 263:4 264:48 265:110 266:42 268:6 269:63 270:6 271:42 272:40 273:44 274:4 275:10 276:8 277:32 278:38 279:4 280:106 281:24 282:112 283:4 285:34 287:48 288:106 289:44 290:10 291:4 292:6 293:12 294:48 295:16 296:46 297:4 298:20 299:14 300:2 301:58 302:44 303:16 304:16 306:100 307:16 308:14 310:68 311:32 312:16 313:4 314:14 315:74 316:72 317:80 318:2 319:30 320:24 321:8 322:110 323:66 324:50 325:20 327:48 328:18 329:24 330:26 331:22 332:12 333:16 334:14 335:6 336:34 337:18 338:20 339:34 340:2 341:18 342:24 344:4 345:14 346:10 347:38 348:10 349:12 350:14 351:8 352:10 353:6 354:10 355:84 356:28 357:22 358:24 359:22 360:20 361:14 362:34 363:6 364:12 365:6 366:6 367:34 368:32 369:4 370:6 371:32 372:26 373:4 374:6 376:8 377:2 378:4 379:4 380:30 381:18 382:14 383:16 384:20 385:10 386:18 387:6 388:12 389:10 390:20 391:10 392:30 393:8 394:28 396:14 397:2 398:2 399:14 400:20 401:66 402:22 404:64 405:10 406:46 407:12 408:74 409:30 410:8 411:34 413:6 414:14 415:4 416:24 417:18 418:50 419:6 420:24 421:24 422:10 423:24 424:14 426:20 427:62 428:4 429:8 430:14 431:6 432:2 433:8 434:2 435:8 436:26 437:14 438:14 439:12 440:2 441:26 442:8 443:66 444:10 445:8 446:4 447:34 448:38 449:10 450:4 451:18 452:2 454:20 455:2 456:10 457:2 458:10 459:8 460:14 461:4 462:8 463:12 464:18 465:26 466:4 467:40 468:30 469:16 470:8 471:8 472:2 473:22 474:4 475:6 476:4 477:6 478:30 479:10 480:28 481:6 482:26 483:12 485:14 487:6 488:12 489:22 490:16 491:8 492:12 493:12 494:6 495:14 496:8 497:16 498:24 500:20 501:8 502:16 503:18 504:26 505:14 506:4 507:34 508:10 509:4 510:6 511:18 512:10 513:2 514:2 515:22 516:12 517:20 518:8 519:2 520:16 521:30 522:38 523:6 524:12 525:10 526:8 527:6 528:6 529:8 530:28 531:6 532:40 533:2 534:8 535:18 537:6 538:4 540:104 541:28 542:2 543:2 544:12 545:2 546:20 547:2 548:24 549:28 550:14 551:10 552:26 553:8 554:14 555:38 556:2 557:6 558:8 559:14 560:12 561:2 562:4 563:12 564:16 567:10 568:6 569:8 570:2 571:16 572:16 573:4 575:10 576:2 577:30 578:8 579:22 580:14 582:22 583:20 584:10 585:34 586:22 587:8 588:16 589:52 590:14 591:42 593:6 594:14 595:60 596:28 597:48 598:2 599:4 600:4 601:22 602:8 603:22 604:26 605:20 606:4 607:2 608:4 609:2 610:10 611:12 612:14 613:20 614:18 615:8 616:8 617:12 618:4 619:6 620:2 621:34 622:8 623:8 624:12 625:36 626:8 627:8 628:26 629:12 630:4 631:2 632:10 633:2 634:8 635:24 636:14 637:6 638:4 640:2 641:6 642:2 643:16 644:2 645:20 646:112 647:20 648:8 649:18 650:16 651:22 652:22 653:26 654:4 655:10 656:4 657:36 658:6 659:28 660:32 661:32 662:26 663:26 664:8 666:6 669:22 670:12 671:12 672:20 673:6 674:12 675:10 676:10 677:4 678:16 679:8 681:4 682:12 683:12 684:22 685:14 686:2 687:2 688:22 689:2 691:4 692:16 693:2 694:14 695:2 696:12 698:14 699:12 700:6 701:20 702:18 703:14 704:4 705:8 706:20 707:10 708:14 709:44 710:4 712:4 714:16 715:20 716:6 717:50 719:4 720:24 721:48 722:8 723:8 724:4 725:8 726:2 727:36 729:10 730:6 731:14 732:10 733:10 734:18 735:8 736:18 737:12 738:10 739:2 740:4 741:14 742:2 743:10 746:8 747:12 748:2 749:4 753:10 754:16 755:4 758:2 759:16 760:4 761:6 762:28 763:16 764:6 765:18 766:2 767:6 768:2 769:22 770:30 771:10 772:10 774:40 775:32 776:2 777:6 778:6 781:22 782:4 783:2 784:42 786:4 788:12 790:18 791:76 792:10 793:10 794:10 795:20 796:8 797:14 798:6 799:2 801:2 802:14 804:28 806:10 807:10 808:12 809:10 810:4 813:2 814:10 815:2 816:6 817:4 818:18 819:10 820:52 822:22 823:8 824:10 825:6 826:8 828:4 829:24 830:2 831:18 833:28 834:6 835:12 836:16 837:2 838:4 839:12 840:10 841:26 842:10 843:10 844:14 846:14 847:32 848:6 850:20 851:12 852:4 853:72 854:4 855:12 856:78 857:4 858:4 859:6 861:18 862:8 863:20 864:4 865:16 866:2 867:8 868:22 869:8 870:4 871:10 872:12 873:6 874:8 875:2 877:38 878:2 879:4 880:12 881:8 882:24 883:28 884:22 885:4 886:2 887:22 888:4 889:8 890:6 891:4 892:18 893:6 894:12 896:36 898:10 899:6 900:10 901:4 902:22 903:6 905:2 908:12 910:14 911:4 912:10 913:14 914:12 915:4 916:8 917:18 918:12 919:2 920:4 921:4 922:6 923:14 924:18 925:4 926:36 928:2 929:10 930:2 931:20 932:10 933:4 934:8 935:10 936:16 937:10 938:14 939:12 941:2 942:34 943:16 944:4 945:4 946:12 947:6 948:8 949:14 950:10 951:6 952:10 953:2 955:14 956:14 957:18 959:20 960:18 962:16 963:8 964:2 965:14 966:4 967:12 968:2 969:10 971:10 973:12 974:4 975:66 977:14 978:4 980:12 981:14 982:10 983:26 984:8 985:58 986:22 987:2 988:4 989:48 990:2 991:2 992:4 993:16 994:10 995:6 996:34 999:6 1000:10 1001:8 1002:8 1003:14 1004:10 1005:8 1006:12 1007:14 1008:2 1009:22 1010:8 1011:2 1013:8 1014:6 1015:2 1016:16 1017:18 1018:2 1019:12 1021:6 1022:8 1024:16 1025:6 1026:14 1027:2 1029:2 1030:10 1031:2 1032:10 1035:4 1036:2 1037:4 1038:2 1039:12 1040:8 1041:10 1042:14 1044:6 1045:8 1046:6 1048:4 1049:2 1050:8 1051:2 1052:2 1053:4 1054:86 1055:2 1056:10 1057:6 1058:14 1059:8 1060:10 1061:2 1063:44 1064:10 1065:6 1066:10 1067:2 1068:8 1069:32 1070:2 1071:4 1072:16 1073:22 1075:6 1078:26 1081:20 1082:4 1084:2 1085:2 1086:16 1087:2 1088:16 1089:20 1092:2 1093:4 1096:6 1097:14 1098:2 1101:30 1102:4 1103:8 1104:4 1105:8 1106:4 1107:4 1108:10 1109:8 1110:20 1111:4 1114:6 1115:2 1116:16 1117:4 1120:16 1122:2 1123:2 1124:10 1125:10 1126:12 1127:12 1128:10 1129:42 1130:2 1131:8 1132:28 1133:16 1135:6 1136:8 1137:8 1138:6 1139:2 1140:18 1141:16 1142:4 1143:6 1144:44 1146:4 1147:8 1148:10 1149:4 1150:2 1151:4 1152:4 1153:2 1154:8 1155:8 1156:4 1157:2 1158:6 1159:12 1160:6 1161:4 1162:4 1163:16 1164:2 1165:6 1166:6 1167:2 1168:4 1169:14 1170:2 1171:8 1173:2 1174:2 1175:2 1176:8 1177:2 1178:2 1179:10 1180:2 1181:6 1183:6 1184:12 1185:14 1186:2 1187:10 1188:12 1190:8 1191:16 1192:4 1193:18 1195:14 1197:22 1198:4 1199:4 1200:2 1201:2 1202:2 1203:6 1205:4 1206:4 1209:12 1210:4 1211:4 1213:28 1214:4 1215:12 1216:2 1217:6 1220:66 1221:4 1222:28 1224:14 1226:10 1227:10 1228:6 1229:14 1230:4 1232:14 1234:2 1235:2 1236:28 1237:2 1238:14 1239:10 1241:20 1243:20 1244:12 1245:10 1247:14 1249:2 1250:14 1251:4 1253:2 1255:6 1256:4 1257:8 1258:6 1259:16 1260:2 1261:4 1262:4 1263:8 1264:4 1265:42 1266:6 1267:4 1268:16 1269:4 1270:8 1271:2 1272:2 1273:4 1275:2 1276:6 1277:10 1279:4 1280:12 1281:4 1282:4 1283:6 1284:12 1285:12 1286:2 1287:10 1288:8 1292:2 1295:6 1297:2 1298:10 1299:8 1300:2 1303:2 1305:6 1306:6 1307:6 1308:26 1309:4 1310:12 1311:2 1312:10 1313:4 1314:2 1315:8 1316:44 1317:6 1318:84 1319:14 1320:36 1323:16 1325:4 1326:4 1327:20 1329:6 1331:2 1332:4 1333:8 1334:10 1335:22 1337:2 1338:28 1339:12 1340:4 1341:54 1342:2 1343:20 1344:6 1345:10 1346:12 1347:10 1349:6 1350:30 1351:2 1352:4 1353:4 1354:4 1355:4 1356:4 1357:2 1360:8 1361:2 1364:10 1366:2 1367:2 1369:4 1370:8 1373:8 1374:8 1375:2 1376:2 1377:14 1378:44 1380:4 1381:2 1382:6 1384:2 1386:8 1387:14 1388:2 1390:16 1391:2 1393:2 1394:10 1396:10 1397:12 1398:48 1399:14 1400:4 1401:14 1403:6 1404:10 1405:2 1406:6 1407:4 1409:6 1410:2 1412:20 1414:2 1417:20 1418:10 1419:6 1420:6 1421:16 1424:22 1425:4 1427:4 1428:2 1429:2 1430:10 1432:6 1433:8 1434:32 1435:22 1436:28 1437:2 1438:8 1439:8 1440:10 1441:30 1442:2 1443:2 1445:26 1447:2 1448:2 1451:18 1452:6 1453:14 1456:18 1457:12 1458:2 1461:4 1462:8 1463:18 1464:12 1465:12 1466:8 1467:6 1468:10 1470:34 1471:8 1474:10 1475:12 1476:4 1477:2 1478:6 1479:6 1480:6 1481:10 1482:2 1483:4 1484:4 1486:8 1487:6 1489:2 1490:14 1492:6 1493:22 1495:8 1496:16 1498:8 1499:14 1500:4 1501:2 1502:6 1503:2 1504:8 1505:2 1507:10 1508:4 1509:8 1510:32 1512:14 1514:4 1515:22 1516:14 1517:4 1518:4 1519:52 1524:10 1527:10 1528:8 1530:28 1533:14 1538:20 1539:72 1540:26 1541:2 1542:6 1543:4 1544:2 1546:2 1547:2 1548:6 1550:2 1551:22 1552:8 1555:14 1556:28 1557:8 1558:2 1561:12 1563:2 1564:6 1565:10 1566:2 1567:2 1568:6 1569:4 1570:4 1571:2 1572:2 1573:32 1574:10 1576:10 1577:2 1580:4 1584:24 1585:8 1588:8 1590:4 1593:6 1594:16 1595:4 1596:16 1597:2 1598:6 1599:6 1600:2 1601:2 1603:4 1606:54 1607:12 1608:10 1610:2 1612:22 1613:20 1614:10 1615:28 1617:2 1619:2 1620:6 1621:12 1622:4 1623:2 1626:16 1627:6 1628:8 1629:6 1630:22 1632:8 1633:14 1635:6 1636:12 1637:6 1638:2 1640:2 1641:2 1642:4 1643:4 1644:4 1645:10 1646:6 1648:8 1649:6 1651:2 1652:2 1653:2 1654:18 1655:20 1656:6 1660:16 1663:2 1665:4 1666:2 1667:4 1669:2 1671:14 1672:2 1673:4 1674:14 1675:4 1676:6 1679:4 1680:8 1682:30 1683:12 1688:20 1689:2 1690:4 1691:2 1692:4 1693:4 1695:14 1696:2 1698:6 1703:2 1705:4 1706:10 1707:10 1708:2 1709:2 1711:2 1712:10 1713:26 1714:6 1715:22 1716:2 1717:2 1718:2 1719:2 1720:2 1722:6 1723:4 1724:20 1725:10 1728:22 1730:2 1733:6 1734:6 1735:2 1736:4 1737:6 1738:2 1740:14 1741:24 1742:22 1743:2 1744:4 1746:12 1747:2 1752:2 1754:4 1755:2 1756:6 1757:10 1760:6 1761:4 1762:6 1763:2 1765:4 1766:8 1768:22 1769:2 1774:4 1775:2 1776:10 1777:30 1778:4 1779:6 1780:34 1781:6 1782:2 1784:4 1785:4 1786:8 1787:6 1788:18 1789:2 1790:4 1791:4 1792:12 1793:12 1794:2 1795:8 1796:4 1797:6 1799:4 1800:12 1801:34 1804:14 1805:16 1806:6 1808:8 1809:2 1812:2 1813:4 1815:2 1816:2 1819:2 1821:16 1822:22 1823:2 1824:4 1827:2 1828:2 1830:8 1831:2 1832:10 1833:2 1834:2 1835:6 1837:8 1839:2 1840:12 1841:4 1842:4 1844:8 1845:2 1846:4 1847:14 1848:10 1849:4 1851:6 1854:2 1855:4 1856:6 1857:6 1858:2 1859:2 1860:4 1861:8 1863:4 1864:10 1865:20 1870:10 1871:10 1872:2 1873:2 1875:6 1876:4 1879:2 1880:2 1881:4 1882:2 1883:2 1885:14 1887:12 1888:6 1890:12 1892:2 1893:18 1894:2 1895:2 1897:14 1899:8 1900:14 1901:12 1902:16 1904:6 1908:2 1909:8 1910:6 1911:14 1912:10 1913:4 1914:2 1919:6 1920:4 1923:6 1924:2 1925:8 1926:22 1927:4 1928:4 1929:12 1931:6 1932:6 1933:12 1934:2 1935:2 1936:16 1937:2 1939:20 1940:2 1943:2 1944:2 1945:2 1947:2 1948:8 1950:6 1951:2 1952:6 1953:4 1955:2 1958:8 1959:2 1962:2 1963:20 1964:4 1966:20 1968:2 1971:6 1972:8 1973:24 1974:2 1975:10 1977:4 1978:4 1982:4 1983:2 1984:4 1985:20 1986:2 1988:2 1989:2 1990:6 1991:26 1992:8 1994:4 2003:2 2004:6 2005:8 2006:2 2010:22 2012:4 2014:2 2016:4 2019:8 2021:6 2022:10 2023:8 2024:4 2025:8 2026:2 2029:12 2030:8 2031:12 2032:4 2034:2 2035:4 2036:4 2037:2 2038:10 2040:14 2041:4 2044:2 2045:4 2047:28 2048:6 2049:2 2050:6 2052:4 2054:2 2055:6 2059:2 2060:6 2063:2 2064:2 2065:2 2066:6 2067:6 2068:6 2069:4 2070:4 2071:2 2073:8 2074:10 2075:56 2076:8 2077:4 2078:2 2081:6 2082:14 2083:4 2084:2 2086:10 2087:2 2088:4 2090:8 2091:4 2098:4 2099:4 2100:10 2101:6 2103:4 2105:4 2106:2 2107:10 2109:2 2110:16 2111:12 2113:8 2116:12 2118:16 2120:4 2121:14 2122:2 2123:2 2124:6 2125:10 2126:2 2128:2 2129:2 2130:10 2133:4 2134:16 2141:8 2142:2 2145:4 2147:20 2148:2 2149:4 2150:10 2151:8 2152:8 2153:6 2155:8 2156:2 2157:16 2158:8 2160:2 2161:6 2162:4 2163:2 2164:6 2165:6 2166:2 2167:2 2169:4 2171:4 2172:6 2173:6 2174:8 2178:14 2179:8 2182:10 2183:2 2184:10 2186:4 2187:24 2188:2 2189:2 2191:6 2192:2 2193:2 2194:2 2195:2 2196:2 2197:2 2198:6 2199:2 2202:2 2203:2 2209:4 2210:4 2211:6 2212:10 2214:12 2215:26 2216:16 2217:2 2218:6 2219:4 2220:20 2222:10 2223:8 2225:14 2226:2 2228:4 2230:6 2233:2 2235:4 2237:14 2239:4 2240:2 2242:2 2243:14 2244:24 2248:10 2250:8 2252:6 2253:4 2255:8 2256:8 2258:2 2260:12 2261:2 2262:4 2263:12 2264:12 2266:18 2267:8 2269:6 2271:16 2272:2 2273:4 2274:2 2275:2 2276:10 2277:4 2278:2 2279:6 2281:4 2283:8 2284:14 2285:2 2286:8 2287:2 2288:2 2289:4 2290:2 2291:6 2296:2 2298:6 2299:8 2301:2 2302:2 2303:4 2304:6 2306:2 2307:2 2308:4 2310:8 2311:4 2312:16 2313:2 2314:8 2315:4 2317:14 2319:2 2320:2 2321:40 2322:32 2323:8 2324:14 2325:2 2326:10 2328:2 2330:8 2333:20 2334:8 2336:8 2338:2 2342:8 2345:6 2346:14 2347:4 2350:6 2352:22 2354:2 2355:2 2356:2 2357:2 2359:2 2362:2 2365:6 2366:4 2367:8 2371:2 2372:10 2373:2 2374:2 2375:4 2376:16 2377:8 2380:2 2381:10 2382:10 2384:2 2386:10 2387:14 2389:4 2390:2 2391:6 2393:6 2394:2 2395:6 2399:2 2402:2 2404:6 2406:2 2408:6 2409:10 2410:2 2411:2 2412:4 2413:4 2416:22 2417:4 2418:2 2419:6 2422:20 2423:10 2426:2 2427:2 2428:6 2429:16 2430:10 2436:2 2437:14 2438:2 2440:6 2441:4 2443:2 2447:6 2448:4 2451:2 2452:2 2453:6 2454:2 2455:4 2456:2 2457:4 2459:12 2460:6 2462:4 2464:2 2465:4 2468:6 2470:4 2471:4 2472:4 2473:4 2476:2 2477:4 2478:2 2481:4 2482:4 2483:8 2486:4 2488:2 2489:2 2491:2 2495:42 2496:12 2498:2 2501:6 2504:14 2506:2 2507:4 2508:2 2509:4 2514:12 2515:6 2516:2 2517:4 2518:2 2521:2 2525:2 2526:2 2527:2 2531:2 2533:4 2534:10 2535:2 2536:8 2538:4 2540:2 2545:6 2546:2 2547:2 2548:2 2550:4 2551:2 2552:2 2553:34 2554:10 2557:18 2558:2 2559:2 2561:12 2563:2 2564:6 2566:4 2571:6 2572:12 2575:2 2577:6 2578:4 2580:2 2581:4 2582:4 2583:4 2584:2 2585:2 2586:2 2587:10 2590:4 2591:2 2593:4 2594:6 2600:4 2602:2 2606:4 2611:14 2612:4 2615:8 2618:2 2619:2 2620:2 2621:4 2622:4 2623:4 2624:2 2625:2 2627:2 2628:4 2632:2 2636:32 2637:2 2638:6 2639:2 2640:8 2642:2 2643:4 2646:8 2647:6 2648:4 2650:2 2652:4 2653:26 2654:2 2655:2 2656:6 2659:4 2662:2 2664:2 2666:8 2667:4 2670:2 2671:10 2672:6 2673:2 2674:6 2676:2 2677:24 2679:2 2680:6 2683:8 2684:2 2687:2 2688:2 2693:2 2694:2 2701:2 2703:12 2704:2 2705:2 2706:10 2708:10 2712:4 2713:10 2715:2 2717:4 2719:2 2723:26 2724:10 2725:6 2726:2 2727:2 2728:6 2730:2 2737:4 2739:4 2740:4 2741:2 2743:2 2744:6 2745:2 2746:42 2747:6 2751:6 2752:12 2755:2 2756:2 2757:2 2758:8 2760:4 2761:12 2762:2 2764:10 2765:8 2766:14 2769:4 2771:2 2773:2 2776:2 2777:6 2778:2 2779:2 2780:4 2781:8 2782:16 2783:2 2786:2 2788:8 2789:4 2790:34 2793:2 2794:2 2795:2 2796:14 2797:2 2798:6 2799:6 2800:10 2801:2 2803:2 2806:2 2808:4 2809:2 2812:16 2814:6 2817:6 2818:2 2819:2 2820:2 2821:10 2823:2 2825:2 2827:2 2828:10 2833:4 2836:6 2838:6 2839:4 2840:4 2841:2 2843:4 2844:6 2845:8 2848:2 2850:4 2853:8 2854:2 2855:2 2856:4 2858:2 2859:6 2860:4 2862:2 2864:2 2865:2 2866:4 2867:2 2868:4 2869:4 2874:2 2875:22 2876:8 2877:4 2881:4 2882:2 2883:4 2887:4 2888:4 2889:18 2890:2 2891:4 2892:2 2895:4 2897:26 2898:2 2899:2 2900:4 2901:4 2904:6 2907:6 2908:2 2910:8 2911:4 2912:4 2914:4 2916:4 2917:8 2920:6 2921:4 2922:4 2924:6 2927:18 2929:12 2931:2 2933:6 2934:2 2935:2 2936:2 2939:8 2940:4 2943:2 2944:12 2945:4 2949:4 2951:4 2952:8 2953:6 2955:2 2956:10 2957:4 2960:2 2961:2 2964:4 2965:40 2969:12 2971:8 2974:4 2977:4 2978:4 2979:36 2986:4 2987:12 2989:6 2992:2 2996:2 2997:2 2998:26 3000:10 3001:4 3003:2 3004:2 3005:2 3006:2 3007:6 3010:2 3011:4 3013:2 3015:2 3016:8 3018:6 3020:2 3021:10 3023:4 3024:2 3026:4 3027:2 3028:10 3029:2 3030:14 3032:4 3033:2 3034:4 3035:4 3036:6 3038:2 3041:2 3042:10 3044:2 3045:18 3046:2 3049:2 3050:2 3051:6 3053:8 3057:10 3058:8 3059:2 3062:2 3065:6 3067:22 3071:2 3074:14 3077:4 3081:2 3082:4 3083:8 3084:6 3085:2 3088:2 3089:2 3091:2 3093:30 3094:2 3095:6 3096:2 3098:2 3099:12 3100:8 3102:4 3103:4 3106:4 3111:4 3115:14 3116:2 3117:8 3123:6 3124:6 3125:6 3126:12 3128:10 3129:8 3132:2 3133:4 3135:2 3137:2 3138:4 3139:8 3140:4 3141:8 3143:8 3146:4 3148:4 3149:8 3150:4 3154:6 3158:2 3159:4 3160:4 3161:4 3163:8 3164:2 3165:6 3177:6 3181:4 3182:6 3183:2 3186:4 3187:2 3190:2 3192:4 3195:4 3198:2 3199:2 3201:6 3204:6 3205:2 3206:2 3207:4 3208:4 3209:4 3210:2 3211:4 3215:2 3216:2 3218:8 3220:6 3221:4 3223:2 3224:2 3227:2 3230:4 3233:2 3235:8 3237:2 3238:2 3239:4 3241:4 3245:8 3247:6 3248:4 3249:2 3251:2 3253:4 3254:4 3256:4 3260:2 3262:14 3263:4 3265:2 3266:2 3268:6 3269:6 3272:2 3274:8 3275:2 3280:18 3281:28 3282:4 3289:8 3290:4 3291:16 3292:2 3293:16 3294:2 3297:6 3298:2 3299:2 3300:4 3301:4 3302:4 3303:2 3304:2 3305:2 3309:4 3310:4 3312:2 3315:12 3316:16 3318:6 3321:4 3323:2 3324:2 3325:2 3326:10 3329:12 3330:8 3331:14 3333:6 3334:4 3335:6 3338:4 3340:2 3344:4 3350:6 3352:6 3353:2 3354:2 3356:10 3360:4 3361:2 3362:4 3363:26 3365:12 3366:6 3367:8 3370:6 3371:10 3372:4 3373:6 3374:2 3375:2 3377:2 3378:4 3382:2 3383:4 3384:2 3386:20 3387:8 3388:6 3389:2 3390:6 3391:6 3393:2 3394:6 3395:14 3397:2 3400:4 3401:2 3402:2 3404:10 3405:8 3407:4 3408:6 3409:4 3416:4 3417:4 3419:4 3421:2 3424:2 3427:16 3430:10 3432:14 3434:12 3437:2 3439:2 3442:8 3445:32 3446:2 3448:6 3449:6 3450:10 3451:4 3452:6 3455:2 3460:2 3461:12 3464:2 3465:2 3471:12 3472:2 3474:2 3477:4 3478:4 3481:2 3482:4 3484:2 3485:4 3487:6 3489:2 3490:4 3491:4 3492:8 3493:2 3495:2 3499:2 3500:10 3501:2 3503:6 3504:54 3506:4 3508:14 3509:4 3511:8 3516:4 3518:6 3520:4 3521:6 3522:2 3525:2 3526:18 3528:2 3531:4 3532:14 3533:2 3535:2 3537:2 3538:2 3539:6 3541:2 3542:2 3544:2 3546:6 3550:16 3555:2 3556:20 3557:4 3558:2 3561:10 3563:2 3564:2 3568:2 3569:2 3571:6 3573:6 3578:4 3580:10 3581:2 3583:4 3584:8 3586:2 3587:4 3591:4 3593:4 3594:4 3599:4 3601:4 3604:2 3607:2 3608:6 3609:20 3610:2 3611:14 3612:2 3613:2 3614:2 3616:2 3617:2 3619:2 3621:12 3622:2 3624:16 3626:2 3630:10 3631:2 3634:2 3635:10 3638:2 3641:2 3644:2 3646:2 3648:8 3650:2 3652:2 3654:8 3655:28 3658:6 3662:10 3663:8 3665:4 3669:6 3670:2 3673:12 3675:2 3680:10 3681:2 3682:2 3685:4 3686:2 3687:4 3688:2 3689:2 3690:2 3691:2 3692:2 3693:2 3694:2 3697:2 3698:26 3700:2 3708:2 3709:2 3713:2 3716:4 3720:2 3722:4 3723:2 3725:2 3726:4 3729:6 3730:2 3732:6 3734:2 3735:4 3738:4 3739:8 3740:4 3741:4 3742:2 3743:2 3745:2 3748:2 3749:2 3750:2 3751:2 3752:2 3753:6 3756:2 3759:2 3774:8 3778:2 3780:4 3782:42 3784:2 3785:12 3786:2 3787:4 3789:2 3791:4 3794:6 3795:2 3801:4 3805:2 3807:2 3808:2 3809:2 3812:10 3814:6 3818:6 3819:4 3824:2 3825:24 3826:2 3827:2 3832:8 3836:2 3840:2 3842:18 3843:4 3844:8 3847:8 3849:2 3855:6 3857:4 3859:2 3860:6 3862:4 3867:4 3868:2 3870:2 3871:12 3872:4 3875:4 3877:4 3879:2 3880:4 3881:18 3882:2 3883:4 3884:2 3885:10 3887:2 3889:2 3895:6 3901:4 3903:2 3905:2 3914:4 3915:6 3917:2 3918:4 3921:4 3923:2 3925:2 3926:2 3930:2 3932:6 3940:2 3941:4 3943:2 3947:8 3954:2 3958:2 3960:2 3962:6 3963:6 3964:2 3966:2 3968:2 3972:4 3974:2 3975:12 3977:4 3978:2 3979:2 3980:2 3981:2 3984:4 3986:2 3990:2 3992:2 3994:6 3997:4 3998:6 4001:2 4005:10 4007:2 4012:6 4014:2 4016:2 4018:2 4021:4 4025:8 4033:2 4034:6 4036:2 4037:2 4038:2 4040:6 4042:2 4043:2 4045:2 4046:2 4048:12 4050:10 4051:6 4052:6 4054:4 4063:2 4064:4 4065:4 4070:12 4071:6 4073:2 4076:4 4077:2 4078:2 4081:4 4082:2 4083:2 4086:2 4088:12 4098:8 4099:8 4104:6 4105:4 4106:2 4107:6 4110:4 4111:2 4118:4 4119:2 4122:2 4123:2 4124:4 4126:24 4127:2 4130:2 4132:2 4134:4 4135:4 4136:2 4137:4 4140:2 4145:2 4146:4 4148:2 4149:16 4151:12 4154:2 4156:6 4160:6 4163:2 4165:2 4167:4 4171:4 4172:2 4175:2 4178:2 4182:2 4184:6 4185:18 4189:2 4190:4 4192:2 4198:2 4200:2 4209:4 4210:8 4212:4 4216:2 4217:2 4221:2 4223:2 4224:4 4225:6 4228:6 4233:4 4236:2 4237:2 4240:2 4243:2 4248:4 4249:4 4250:4 4253:2 4255:2 4256:4 4257:2 4258:4 4266:8 4267:2 4271:8 4276:4 4277:4 4280:16 4281:2 4289:20 4290:2 4296:2 4298:2 4299:2 4306:2 4313:2 4316:6 4317:4 4319:14 4323:2 4325:2 4328:4 4333:4 4336:2 4339:4 4340:6 4343:6 4344:2 4346:4 4353:2 4354:8 4356:6 4358:2 4364:2 4365:2 4366:2 4368:2 4369:12 4370:2 4371:10 4373:2 4375:2 4381:2 4384:2 4385:4 4387:6 4390:2 4393:2 4398:2 4411:6 4419:2 4420:2 4424:2 4425:2 4426:2 4428:4 4431:6 4432:6 4437:2 4443:2 4449:4 4452:2 4453:4 4456:2 4459:6 4460:4 4461:6 4466:26 4468:2 4474:2 4479:2 4493:6 4495:2 4498:8 4499:2 4504:4 4505:90 4506:2 4508:2 4510:2 4511:4 4517:2 4518:6 4521:2 4523:2 4525:2 4527:2 4530:4 4531:2 4532:2 4537:2 4539:2 4546:2 4550:6 4552:4 4556:4 4562:4 4564:2 4567:4 4573:4 4574:12 4577:2 4580:2 4582:90 4584:2 4588:2 4589:2 4590:2 4591:4 4592:2 4593:2 4595:6 4597:4 4599:2 4602:2 4605:4 4607:2 4610:2 4613:2 4617:10 4619:2 4620:2 4623:2 4628:4 4632:2 4633:18 4636:4 4637:2 4638:4 4640:2 4641:2 4643:2 4645:2 4647:2 4648:8 4654:2 4656:4 4659:12 4660:4 4661:4 4663:2 4670:10 4672:4 4676:2 4680:18 4683:6 4684:2 4685:4 4687:2 4692:2 4699:4 4700:2 4707:2 4708:8 4709:2 4710:6 4711:2 4713:6 4716:4 4719:6 4720:2 4722:8 4727:4 4735:2 4737:2 4738:8 4739:8 4740:2 4742:2 4749:2 4753:8 4757:4 4759:4 4767:2 4769:2 4771:2 4775:2 4776:4 4777:4 4779:2 4781:18 4782:4 4787:2 4791:2 4795:2 4797:6 4801:4 4804:2 4805:6 4806:2 4814:2 4818:2 4820:6 4824:24 4826:2 4829:2 4835:2 4839:2 4840:8 4842:2 4845:2 4846:10 4847:2 4849:4 4850:2 4855:6 4856:2 4860:4 4861:6 4862:2 4866:8 4868:8 4869:2 4870:16 4875:2 4879:10 4881:2 4882:6 4883:2 4887:2 4889:2 4891:2 4892:4 4893:2 4895:2 4899:4 4902:6 4903:2 4904:2 4906:2 4909:14 4912:2 4913:2 4918:2 4920:2 4928:4 4933:8 4935:4 4938:4 4941:6 4944:4 4945:2 4949:4 4951:6 4952:4 4955:6 4960:2 4962:4 4966:6 4967:2 4968:4 4971:4 4977:4 4979:2 4980:2 4983:2 4990:4 4996:2 4999:2 5000:8 5001:4 5002:2 5003:2 5004:2 5006:4 5007:2 5009:6 5014:2 5017:6 5018:2 5021:12 5023:8 5027:6 5028:4 5031:2 5037:2 5039:2 5040:2 5044:34 5051:6 5052:2 5053:2 5054:2 5055:2 5059:2 5064:2 5065:6 5069:4 5072:4 5077:4 5078:2 5079:2 5092:2 5093:2 5096:2 5098:6 5112:6 5113:2 5116:2 5118:2 5121:14 5125:2 5126:2 5127:2 5128:8 5129:4 5130:6 5132:4 5134:4 5136:10 5140:8 5142:6 5143:4 5144:6 5148:2 5150:6 5154:2 5161:6 5167:2 5172:8 5173:2 5174:4 5179:2 5181:2 5182:2 5184:6 5186:2 5188:4 5194:12 5195:8 5196:4 5199:4 5202:6 5204:2 5205:8 5206:2 5208:4 5209:4 5213:2 5215:2 5217:4 5218:6 5220:4 5221:4 5223:8 5226:4 5228:2 5229:12 5230:8 5231:2 5233:16 5239:2 5243:2 5246:6 5248:2 5249:2 5250:4 5252:2 5256:4 5259:4 5260:18 5261:6 5262:2 5267:2 5275:2 5278:2 5280:8 5284:2 5288:2 5296:14 5299:2 5304:2 5312:4 5313:4 5315:4 5317:2 5322:4 5325:6 5326:4 5327:4 5329:8 5332:2 5336:2 5348:2 5359:2 5363:6 5364:6 5366:6 5367:2 5368:2 5369:2 5374:22 5376:10 5378:4 5379:4 5385:2 5387:8 5388:4 5391:8 5393:2 5395:2 5396:2 5401:2 5403:2 5407:6 5414:2 5415:4 5419:2 5420:4 5421:4 5422:2 5425:2 5426:8 5427:6 5428:2 5432:2 5441:4 5445:2 5448:2 5449:14 5454:6 5456:4 5464:2 5468:2 5473:2 5476:2 5478:2 5479:2 5483:6 5487:6 5491:2 5496:2 5498:2 5501:2 5502:4 5505:2 5507:6 5508:16 5510:2 5514:2 5516:2 5518:2 5520:8 5525:4 5526:2 5529:4 5533:2 5535:6 5541:8 5544:10 5549:2 5550:6 5552:2 5553:2 5554:2 5560:2 5563:8 5565:2 5568:2 5569:2 5573:8 5574:4 5576:2 5581:2 5583:2 5586:2 5588:2 5592:2 5593:4 5595:2 5601:2 5602:2 5606:2 5611:6 5615:2 5616:2 5619:4 5624:2 5626:2 5627:422 5632:2 5633:8 5636:8 5637:6 5658:2 5660:6 5662:12 5664:6 5667:4 5669:2 5670:4 5671:6 5672:2 5675:4 5690:2 5697:2 5699:2 5700:2 5705:4 5709:2 5711:4 5721:6 5726:8 5730:2 5732:20 5735:2 5738:8 5739:2 5745:4 5747:2 5752:2 5760:2 5764:2 5768:2 5769:2 5773:4 5775:2 5780:2 5786:2 5787:4 5790:2 5793:4 5796:2 5798:10 5801:4 5803:2 5805:2 5811:12 5816:2 5819:2 5821:4 5822:2 5825:12 5828:2 5832:6 5833:2 5835:2 5853:2 5856:2 5859:2 5864:6 5865:8 5866:2 5867:2 5869:2 5876:6 5878:2 5879:10 5886:24 5894:2 5895:2 5900:8 5901:4 5918:6 5922:2 5930:2 5931:2 5932:2 5937:8 5939:4 5941:2 5942:2 5946:2 5947:2 5948:8 5952:2 5954:2 5955:2 5961:2 5970:4 5973:2 5979:2 5984:4 5990:2 5996:2 5999:6 6002:2 6006:4 6008:2 6010:2 6023:2 6024:2 6028:2 6032:2 6033:10 6034:2 6043:2 6044:2 6048:2 6051:4 6053:2 6057:4 6060:2 6062:2 6065:2 6066:2 6068:2 6073:4 6074:2 6077:2 6079:2 6083:2 6084:4 6089:4 6092:4 6093:2 6097:2 6106:2 6109:2 6114:90 6117:2 6119:2 6121:8 6122:6 6124:6 6129:2 6130:2 6131:2 6132:2 6136:2 6139:2 6141:4 6145:4 6146:6 6149:2 6157:2 6158:4 6159:2 6160:8 6163:2 6165:2 6167:4 6168:8 6170:4 6174:2 6176:2 6185:10 6187:2 6190:8 6198:2 6200:2 6202:2 6203:2 6204:2 6205:2 6207:2 6212:4 6213:2 6219:4 6221:2 6222:2 6229:4 6232:4 6233:2 6234:2 6239:2 6243:2 6246:2 6250:2 6251:2 6252:2 6254:8 6257:8 6259:2 6260:2 6261:6 6262:2 6268:8 6272:2 6274:10 6275:2 6276:2 6277:2 6278:2 6283:2 6284:4 6285:4 6288:2 6290:2 6291:2 6296:4 6297:6 6300:2 6305:2 6307:4 6308:4 6309:2 6310:10 6312:6 6319:2 6321:2 6322:4 6323:8 6325:8 6326:2 6335:6 6338:6 6342:4 6344:2 6348:2 6349:4 6353:2 6363:2 6364:2 6366:2 6370:2 6371:12 6373:6 6376:2 6377:2 6378:2 6380:2 6384:8 6387:2 6388:6 6392:6 6408:4 6412:8 6417:2 6422:4 6423:4 6427:2 6431:2 6440:4 6441:4 6443:4 6444:2 6445:2 6446:2 6447:2 6448:2 6452:6 6453:4 6454:2 6460:2 6463:2 6464:2 6477:6 6483:2 6485:10 6489:2 6490:2 6492:2 6495:4 6498:2 6499:4 6507:2 6508:2 6516:6 6517:2 6519:14 6520:4 6529:12 6537:2 6539:2 6543:4 6546:6 6549:2 6552:2 6555:4 6559:2 6563:2 6567:2 6569:10 6571:2 6573:2 6574:2 6575:2 6578:2 6583:2 6586:4 6587:4 6589:2 6590:2 6591:4 6593:8 6598:2 6601:2 6603:2 6605:2 6606:4 6612:4 6620:2 6625:6 6627:4 6630:4 6637:4 6640:2 6641:2 6645:6 6650:2 6657:18 6658:2 6666:4 6668:6 6670:2 6671:6 6672:2 6673:6 6678:14 6682:10 6685:2 6686:2 6691:8 6699:2 6701:2 6702:2 6707:4 6710:2 6718:2 6719:16 6720:2 6727:2 6728:4 6730:2 6749:2 6751:2 6754:2 6756:2 6759:2 6767:2 6769:4 6773:2 6780:4 6783:2 6792:4 6793:2 6800:4 6806:4 6808:2 6822:2 6836:2 6838:6 6848:2 6853:8 6855:2 6856:4 6860:2 6861:10 6864:2 6865:2 6868:2 6872:2 6876:4 6884:2 6886:2 6887:2 6891:2 6892:4 6895:4 6901:6 6902:4 6910:4 6914:10 6922:2 6923:2 6924:2 6928:2 6930:14 6933:4 6934:2 6937:10 6939:4 6941:6 6944:2 6945:2 6951:2 6952:2 6953:2 6963:10 6967:2 6974:2 6976:22 6977:6 6978:4 6980:2 6985:4 7002:14 7008:4 7010:2 7011:2 7013:2 7015:2 7018:4 7019:2 7023:4 7025:2 7027:4 7029:2 7036:6 7037:4 7042:2 7043:2 7048:4 7052:2 7059:4 7063:2 7068:2 7072:6 7074:2 7076:2 7077:2 7080:2 7082:2 7085:4 7088:4 7089:2 7091:2 7093:2 7094:4 7104:2 7106:4 7107:10 7109:4 7112:2 7116:4 7120:16 7121:4 7123:2 7125:2 7126:2 7131:2 7136:6 7137:2 7139:2 7141:2 7143:2 7144:10 7145:2 7146:4 7159:4 7160:2 7162:2 7163:4 7168:4 7169:8 7173:4 7175:2 7177:2 7179:6 7187:2 7190:2 7193:2 7197:2 7199:2 7209:2 7213:2 7214:10 7218:2 7226:2 7231:2 7235:2 7242:2 7244:4 7245:10 7251:2 7254:2 7256:2 7257:16 7259:6 7268:2 7271:2 7279:2 7282:2 7284:2 7285:10 7286:2 7289:2 7290:2 7291:2 7293:2 7294:4 7296:2 7297:2 7298:2 7303:2 7304:2 7306:2 7307:2 7312:6 7317:4 7318:4 7320:2 7322:4 7329:2 7335:2 7338:2 7339:2 7342:2 7346:10 7349:2 7352:4 7353:4 7355:2 7361:6 7367:2 7368:2 7372:2 7374:2 7375:2 7383:2 7384:2 7392:2 7397:2 7406:4 7418:4 7420:2 7422:2 7440:4 7441:6 7443:6 7448:12 7452:6 7461:2 7472:4 7476:2 7478:2 7488:2 7489:4 7491:4 7494:2 7496:4 7502:8 7505:4 7506:2 7515:2 7516:4 7517:4 7523:2 7526:2 7527:4 7530:2 7532:2 7534:10 7536:2 7543:2 7549:4 7551:2 7570:2 7571:6 7574:2 7575:2 7576:2 7577:2 7581:2 7584:2 7595:2 7596:90 7597:2 7598:2 7599:2 7600:4 7601:4 7607:2 7612:4 7641:6 7642:2 7647:2 7654:2 7657:2 7660:2 7662:2 7663:4 7665:4 7668:2 7670:2 7671:2 7688:4 7700:4 7703:2 7706:2 7712:2 7717:4 7724:2 7729:14 7731:2 7744:4 7750:2 7757:2 7761:2 7762:4 7763:2 7766:10 7769:2 7772:4 7780:2 7786:8 7792:4 7798:2 7805:12 7806:2 7811:4 7813:8 7814:2 7819:6 7823:2 7825:2 7832:2 7834:2 7835:2 7843:4 7846:2 7851:2 7852:2 7866:2 7872:2 7873:4 7877:4 7878:2 7879:2 7883:2 7884:2 7885:4 7886:2 7887:2 7891:2 7893:10 7895:6 7899:4 7900:2 7901:2 7909:2 7912:4 7917:2 7920:2 7922:2 7925:2 7931:4 7937:4 7942:2 7951:2 7956:2 7959:2 7964:2 7965:2 7969:4 7978:2 7981:2 7984:2 7985:2 7987:4 7992:2 7993:2 7994:2 7997:2 7998:2 8000:6 8001:2 8018:6 8022:2 8036:2 8053:6 8054:2 8062:2 8067:2 8069:2 8075:2 8076:2 8078:2 8081:2 8089:2 8090:2 8093:2 8095:2 8112:6 8113:2 8117:2 8123:4 8131:2 8135:2 8139:6 8143:2 8144:4 8148:2 8149:2 8154:2 8156:2 8159:12 8161:2 8164:8 8177:6 8179:8 8180:2 8183:6 8188:2 8190:2 8194:2 8200:2 8204:2 8210:8 8217:2 8218:2 8220:2 8223:4 8226:2 8230:2 8231:2 8237:2 8242:4 8247:2 8259:2 8261:2 8264:2 8267:2 8268:4 8274:2 8279:2 8283:2 8284:2 8285:2 8286:2 8288:2 8297:2 8302:2 8304:2 8309:4 8310:2 8313:12 8323:6 8324:2 8329:6 8331:2 8334:6 8335:2 8337:4 8339:2 8341:2 8350:2 8360:2 8362:14 8366:2 8368:6 8370:2 8374:4 8375:2 8382:6 8388:10 8391:2 8394:2 8398:2 8402:4 8404:2 8407:2 8408:2 8417:4 8425:2 8427:4 8430:6 8434:4 8445:2 8446:2 8451:2 8452:2 8455:4 8472:2 8488:2 8492:4 8494:2 8496:2 8499:4 8501:6 8502:2 8504:2 8506:4 8512:2 8517:2 8523:2 8526:2 8538:6 8539:2 8545:6 8547:2 8554:6 8555:2 8559:4 8560:6 8564:4 8569:40 8576:2 8592:2 8594:2 8601:2 8603:2 8607:4 8609:2 8613:2 8618:2 8634:2 8635:2 8652:2 8659:2 8661:4 8667:4 8668:2 8672:2 8675:2 8679:2 8692:2 8694:2 8701:2 8703:2 8704:4 8705:2 8706:4 8720:2 8723:2 8726:2 8733:2 8737:2 8739:2 8749:2 8751:6 8753:2 8756:2 8766:2 8768:2 8787:2 8791:4 8793:2 8798:2 8802:6 8805:2 8808:6 8831:2 8832:2 8834:2 8837:2 8840:2 8847:6 8850:8 8852:2 8854:2 8859:2 8861:2 8863:4 8867:4 8871:4 8873:2 8876:2 8881:10 8887:2 8889:2 8890:6 8891:2 8894:2 8895:16 8902:2 8904:2 8911:2 8913:2 8916:2 8920:2 8923:4 8925:12 8930:2 8931:4 8949:8 8952:2 8957:6 8960:2 8965:6 8981:2 8986:4 8988:4 8999:6 9001:8 9004:2 9006:4 9012:2 9014:2 9016:2 9019:4 9030:2 9031:2 9035:6 9043:2 9057:6 9059:2 9063:2 9065:4 9086:2 9093:2 9099:2 9100:6 9103:2 9119:2 9121:2 9125:8 9128:14 9130:4 9131:2 9141:2 9143:6 9145:2 9148:2 9150:2 9151:2 9157:2 9161:2 9170:2 9171:2 9174:6 9180:2 9183:2 9184:6 9188:4 9192:8 9194:2 9210:2 9214:8 9217:6 9220:6 9223:2 9227:4 9238:4 9245:4 9252:2 9253:2 9254:2 9256:2 9265:2 9267:4 9270:2 9275:2 9284:2 9288:2 9292:4 9295:2 9297:2 9299:2 9300:4 9303:2 9313:4 9318:2 9322:2 9327:2 9329:6 9330:2 9331:6 9335:2 9352:2 9365:2 9368:8 9369:2 9375:2 9378:2 9380:4 9383:2 9386:2 9403:2 9406:2 9407:2 9408:6 9409:4 9411:2 9417:2 9418:2 9421:2 9426:2 9429:4 9430:4 9431:2 9434:2 9436:2 9439:4 9444:2 9451:4 9452:4 9454:4 9456:2 9458:6 9461:2 9465:2 9473:10 9475:2 9476:2 9484:2 9488:4 9489:2 9491:6 9492:2 9498:4 9513:2 9530:8 9532:2 9542:2 9545:2 9570:2 9577:2 9583:6 9585:2 9587:2 9588:8 9592:6 9597:2 9598:2 9599:2 9601:2 9606:2 9608:2 9612:2 9627:20 9628:4 9641:6 9643:6 9650:2 9659:6 9671:6 9681:2 9683:2 9685:2 9688:2 9699:2 9703:8 9707:2 9710:2 9711:2 9721:4 9723:2 9728:4 9730:8 9742:2 9743:2 9755:2 9758:4 9763:2 9764:12 9765:6 9770:2 9774:4 9777:2 9780:4 9787:2 9790:4 9802:2 9804:2 9821:2 9822:2 9824:2 9827:4 9830:4 9834:12 9837:2 9862:2 9863:2 9871:2 9903:4 9914:2 9931:2 9946:4 9954:2 9958:2 9961:4 9966:2 9973:2 9974:2 9976:6 9989:2 
0.3989461599643491 1:18 2:10 3:20 4:8 5:80 6:42 7:32 8:28 9:4 10:12 11:32 12:10 13:2 14:28 15:16 17:14 18:30 19:80 20:16 21:38 23:52 25:14 26:6 27:14 28:8 29:4 30:12 31:6 32:8 33:2 34:12 35:2 36:6 37:18 38:34 39:4 40:6 41:32 42:26 43:4 44:4 45:8 46:2 47:4 48:8 49:4 50:2 51:10 52:42 53:2 55:6 57:4 58:4 59:6 60:12 61:12 62:22 63:6 64:18 65:2 66:4 67:2 68:4 69:6 70:10 72:6 74:4 75:20 76:4 77:26 78:8 79:6 80:2 81:10 82:8 83:4 84:8 85:16 89:2 92:4 93:16 95:20 96:10 97:8 98:6 99:22 101:4 102:6 104:8 105:8 106:8 107:4 108:60 111:4 113:22 114:8 115:4 116:10 118:2 119:2 121:10 122:4 124:6 125:2 126:8 127:6 128:10 129:14 131:2 133:4 134:6 136:34 137:8 138:6 140:2 142:12 143:32 145:10 146:6 147:2 148:30 149:4 150:28 151:18 153:12 155:12 156:4 158:20 159:4 160:10 163:2 164:2 165:4 166:14 167:2 170:8 171:14 172:2 175:12 176:10 178:4 179:8 182:6 183:4 187:2 188:2 190:12 193:20 194:2 196:26 197:10 198:6 199:8 200:16 201:10 202:4 203:2 204:6 205:18 206:2 207:2 210:2 211:10 214:12 215:2 216:8 217:68 219:2 221:2 224:8 225:6 226:10 227:12 228:12 229:4 232:2 233:2 234:4 235:24 236:6 237:6 238:6 242:44 244:4 247:4 248:4 249:12 251:6 252:6 255:2 257:8 259:6 262:4 268:2 269:6 270:2 272:4 273:2 274:12 276:8 277:14 278:22 279:2 280:2 283:6 284:8 285:6 287:2 289:2 290:4 291:10 292:4 294:14 295:2 296:18 297:6 299:4 300:2 303:20 304:2 307:8 310:8 311:2 312:6 314:4 315:14 316:2 319:2 320:6 321:2 322:4 325:4 328:12 329:6 330:8 331:4 335:10 336:4 337:8 340:16 341:26 343:2 344:6 345:6 346:14 350:6 351:10 352:4 354:4 356:4 359:4 360:4 361:6 362:2 364:6 366:6 368:8 370:4 373:2 375:4 376:8 380:2 381:4 382:2 383:2 384:2 385:8 386:4 387:2 388:2 389:2 391:4 393:14 394:12 397:16 399:6 401:14 402:4 404:2 409:14 410:4 413:8 414:2 416:14 417:6 421:14 424:20 426:2 427:2 428:6 429:2 431:8 432:2 433:10 435:2 439:6 441:10 442:8 444:2 445:12 446:2 447:2 448:2 452:10 454:10 455:8 456:2 461:4 465:2 466:2 467:8 468:2 469:10 471:4 472:6 473:14 475:2 477:6 478:14 479:2 482:6 488:4 489:10 490:2 491:2 492:18 493:4 495:6 496:6 498:8 500:2 501:2 502:2 504:2 505:4 507:10 509:4 511:2 515:6 517:14 518:2 522:2 523:22 524:4 525:2 526:4 529:2 530:8 533:4 535:2 536:2 537:2 540:2 542:18 546:4 547:10 548:6 550:2 552:2 560:4 561:4 564:2 567:2 569:6 570:4 572:4 573:10 578:4 580:4 582:6 583:2 585:4 587:4 589:2 590:2 593:2 596:6 598:2 599:2 604:2 605:14 608:6 610:6 612:6 616:2 619:4 620:8 621:4 622:10 623:4 624:2 625:6 626:2 627:2 628:2 630:2 632:4 633:2 634:2 635:2 636:4 652:2 653:20 658:2 668:2 669:2 672:2 673:10 675:4 676:6 678:4 679:4 680:4 682:6 684:2 685:4 686:4 687:8 689:4 691:2 694:4 695:10 697:6 698:2 699:2 700:4 702:8 703:6 704:2 707:14 708:2 710:6 712:2 715:4 716:2 718:2 720:6 722:2 724:2 725:6 733:2 734:2 735:6 737:4 739:2 746:2 748:2 749:4 756:2 757:12 761:2 763:4 764:2 766:4 768:2 769:8 770:2 771:2 772:2 776:2 786:2 787:4 788:4 789:2 791:4 794:2 802:6 805:4 809:12 810:2 812:4 814:2 815:2 818:4 821:4 823:4 824:2 826:2 828:2 831:2 832:2 835:2 836:6 837:4 838:4 841:14 842:2 846:4 847:2 848:6 851:2 853:8 854:2 860:8 861:2 864:4 869:4 871:2 872:2 879:6 881:2 882:4 883:2 886:2 889:2 891:2 893:2 897:2 898:2 900:4 901:4 902:6 903:2 911:2 912:2 915:4 917:2 918:6 919:4 920:6 925:2 926:2 927:2 928:2 929:8 932:10 934:2 941:2 942:2 943:6 944:2 945:8 947:4 948:2 952:4 954:4 956:2 959:2 962:2 967:4 968:16 969:10 972:4 974:2 976:8 979:2 980:4 982:2 983:2 984:4 988:6 989:2 990:6 992:2 1001:2 1006:2 1009:2 1011:2 1013:2 1015:6 1016:2 1017:4 1018:4 1019:4 1021:2 1024:4 1025:4 1027:2 1029:2 1034:2 1035:6 1036:4 1041:24 1043:6 1051:4 1052:2 1053:14 1058:6 1064:12 1068:6 1071:2 1074:2 1075:2 1081:4 1083:4 1084:4 1089:4 1092:8 1093:2 1096:2 1097:14 1103:2 1104:2 1109:6 1114:2 1116:6 1117:2 1119:4 1133:2 1136:2 1142:2 1145:4 1147:6 1148:10 1154:2 1157:2 1158:6 1159:4 1160:2 1164:8 1167:2 1168:2 1171:2 1173:10 1174:2 1181:2 1183:2 1184:2 1185:6 1186:6 1188:2 1190:4 1191:6 1192:2 1193:4 1194:2 1196:2 1199:20 1200:2 1203:4 1204:2 1207:6 1210:2 1211:2 1212:2 1214:4 1215:2 1219:6 1222:6 1223:2 1224:2 1226:4 1230:2 1232:2 1233:2 1234:2 1237:2 1239:2 1242:4 1248:4 1253:4 1254:6 1259:2 1260:2 1261:2 1263:2 1267:2 1270:6 1274:4 1276:2 1277:2 1279:4 1282:2 1286:2 1287:2 1288:2 1296:2 1297:2 1298:2 1302:2 1305:2 1306:2 1313:2 1319:2 1321:4 1325:6 1330:2 1331:4 1334:10 1335:6 1338:4 1343:2 1345:2 1353:8 1354:2 1355:4 1358:2 1359:2 1360:2 1362:2 1366:2 1367:2 1375:2 1382:2 1384:4 1385:4 1386:4 1387:4 1391:4 1393:2 1402:14 1405:2 1409:6 1412:2 1414:12 1415:6 1418:4 1419:2 1428:4 1430:2 1432:2 1438:2 1442:2 1445:2 1447:4 1448:6 1449:2 1450:2 1455:2 1457:2 1460:2 1461:2 1465:2 1472:2 1474:4 1477:2 1478:2 1483:6 1492:6 1498:8 1500:2 1504:4 1505:8 1510:2 1512:2 1517:10 1526:2 1532:2 1536:2 1545:2 1552:2 1557:8 1558:2 1561:4 1562:6 1566:2 1574:2 1577:4 1579:4 1588:4 1589:2 1592:2 1595:2 1597:4 1600:6 1602:2 1603:2 1604:2 1605:8 1610:2 1612:2 1615:4 1619:8 1620:2 1622:2 1623:2 1624:4 1628:4 1629:2 1631:6 1639:4 1641:8 1643:2 1648:2 1649:4 1653:10 1654:2 1659:4 1663:4 1665:12 1670:2 1673:2 1674:2 1681:6 1685:4 1687:2 1688:2 1690:6 1693:2 1698:2 1701:6 1706:2 1711:2 1723:4 1724:2 1728:4 1736:2 1738:10 1739:2 1744:2 1750:2 1751:2 1752:2 1753:2 1754:4 1760:2 1762:4 1763:2 1764:2 1767:2 1771:4 1774:2 1785:2 1786:2 1790:2 1794:2 1795:4 1798:2 1809:2 1821:2 1822:2 1824:8 1825:4 1833:2 1840:2 1842:4 1843:12 1845:2 1848:2 1849:8 1851:2 1853:4 1862:2 1864:4 1878:10 1880:2 1881:2 1892:6 1894:4 1895:2 1898:2 1902:2 1905:2 1906:2 1909:4 1910:4 1936:2 1942:6 1945:2 1946:2 1947:2 1949:2 1952:2 1957:2 1960:2 1962:2 1965:2 1970:2 1971:2 1979:6 1982:2 1983:2 1986:2 1988:2 1989:2 1993:2 2001:2 2013:2 2014:4 2021:4 2024:4 2026:2 2034:2 2039:2 2041:4 2042:2 2043:2 2044:2 2047:2 2049:6 2051:2 2053:2 2054:2 2056:2 2057:2 2061:2 2065:4 2067:2 2069:2 2072:2 2076:2 2077:2 2078:2 2083:2 2088:4 2091:2 2095:4 2097:2 2098:2 2101:2 2111:2 2118:4 2123:2 2124:2 2126:2 2129:6 2135:2 2136:2 2146:2 2148:2 2154:6 2155:4 2160:2 2164:2 2171:4 2174:4 2175:2 2180:2 2181:4 2182:2 2192:2 2193:6 2194:2 2198:2 2201:4 2202:2 2214:12 2215:2 2219:4 2221:2 2229:2 2232:2 2234:4 2240:2 2243:6 2258:6 2267:4 2277:6 2281:2 2285:2 2292:4 2298:6 2301:4 2302:2 2305:2 2306:2 2310:2 2313:4 2314:2 2317:2 2318:2 2320:2 2323:4 2332:2 2336:2 2338:4 2357:4 2358:2 2362:2 2364:2 2366:4 2374:2 2379:2 2382:2 2385:2 2391:2 2402:2 2413:2 2417:2 2420:2 2425:6 2426:2 2434:6 2435:2 2445:2 2451:2 2454:4 2458:2 2460:2 2463:2 2465:2 2468:6 2475:2 2483:12 2500:6 2510:4 2511:2 2517:2 2522:2 2525:4 2531:4 2535:2 2540:4 2545:4 2548:4 2549:20 2554:4 2556:2 2562:2 2567:2 2571:2 2575:2 2579:8 2582:8 2586:4 2587:2 2588:2 2589:2 2591:2 2593:4 2596:8 2600:6 2602:26 2607:2 2608:2 2610:2 2619:16 2634:2 2637:2 2651:2 2659:2 2673:4 2678:2 2685:2 2686:2 2690:2 2692:4 2694:2 2695:2 2697:2 2712:2 2713:2 2714:2 2726:2 2728:2 2729:2 2733:2 2736:4 2741:2 2751:2 2753:2 2758:4 2761:2 2763:2 2766:2 2767:2 2788:2 2807:10 2819:4 2824:2 2832:12 2834:2 2841:2 2870:2 2871:2 2879:2 2882:14 2883:2 2884:2 2900:4 2903:2 2904:4 2906:2 2912:8 2913:2 2915:2 2917:2 2922:2 2930:2 2931:2 2935:2 2940:2 2943:4 2944:4 2946:2 2957:8 2963:12 2968:2 2984:4 2986:2 2995:6 3005:4 3010:2 3012:2 3013:4 3015:2 3020:6 3021:2 3026:2 3035:2 3040:6 3045:2 3051:2 3059:2 3070:2 3072:2 3076:4 3079:2 3081:4 3083:8 3085:2 3086:2 3087:6 3093:2 3098:6 3104:2 3110:2 3111:2 3117:2 3123:2 3128:2 3130:2 3131:2 3132:4 3139:2 3140:2 3143:2 3147:2 3154:2 3161:2 3169:2 3170:2 3172:4 3173:4 3175:2 3182:2 3183:2 3187:2 3188:2 3190:2 3204:4 3219:4 3220:2 3221:2 3224:2 3226:2 3232:4 3233:8 3234:12 3237:2 3239:2 3242:2 3246:2 3265:4 3269:2 3270:2 3271:2 3275:2 3282:2 3286:2 3294:2 3313:4 3323:6 3328:10 3333:2 3349:4 3355:2 3365:2 3373:2 3379:2 3382:2 3385:2 3396:2 3398:2 3402:2 3408:4 3415:2 3420:4 3423:2 3436:2 3455:2 3470:2 3487:2 3501:6 3505:4 3506:2 3507:2 3510:2 3518:6 3521:2 3522:2 3528:4 3531:2 3532:2 3537:2 3563:4 3565:2 3567:4 3568:2 3569:2 3572:2 3574:2 3578:2 3589:2 3604:2 3608:2 3612:6 3620:2 3623:2 3624:4 3627:4 3629:8 3630:2 3643:2 3644:2 3658:4 3665:4 3666:2 3676:4 3694:2 3702:2 3730:2 3733:2 3750:2 3755:4 3758:2 3760:4 3761:2 3776:2 3777:2 3787:4 3789:2 3798:2 3800:2 3809:6 3811:4 3813:4 3830:2 3835:4 3838:2 3850:2 3857:4 3858:4 3864:4 3866:2 3872:2 3875:4 3882:2 3911:6 3915:10 3916:2 3918:2 3925:2 3927:2 3930:2 3936:2 3967:2 3968:2 3971:2 3977:2 3979:2 3980:2 3983:2 3987:2 3992:2 4000:2 4006:4 4007:2 4009:2 4021:2 4035:2 4037:4 4038:10 4042:6 4058:2 4060:2 4065:4 4085:4 4086:2 4087:2 4100:4 4102:2 4104:2 4120:2 4131:2 4137:2 4141:4 4161:2 4163:2 4165:2 4175:2 4180:2 4184:2 4185:2 4192:4 4215:2 4245:2 4262:2 4265:2 4283:4 4285:2 4290:4 4307:2 4313:4 4314:2 4318:2 4332:4 4339:2 4349:2 4350:2 4374:2 4388:4 4393:2 4397:2 4400:6 4415:2 4419:2 4425:4 4440:2 4447:2 4452:2 4464:2 4467:4 4468:2 4470:6 4476:4 4481:2 4485:2 4486:2 4495:2 4519:2 4557:2 4558:2 4559:2 4561:2 4565:4 4574:2 4583:2 4586:2 4598:2 4605:4 4616:2 4627:2 4632:2 4640:2 4655:4 4658:2 4675:2 4676:2 4678:2 4701:2 4721:2 4726:4 4763:2 4779:2 4784:2 4787:2 4818:2 4837:2 4839:2 4841:2 4848:2 4855:2 4857:2 4859:2 4863:4 4869:2 4871:2 4880:2 4887:4 4895:2 4897:4 4918:2 4929:4 4931:2 4932:2 4940:2 4951:2 4953:4 4954:2 4955:2 4961:4 4970:2 4981:2 5015:2 5021:2 5047:2 5069:2 5073:2 5082:2 5090:2 5099:2 5100:2 5128:4 5134:4 5152:2 5154:4 5171:4 5172:2 5182:2 5185:2 5196:4 5200:2 5201:2 5204:4 5220:2 5223:2 5224:4 5246:2 5252:2 5255:2 5262:2 5268:4 5270:2 5275:2 5276:4 5285:6 5298:2 5313:2 5336:2 5337:4 5340:6 5356:2 5369:2 5373:2 5382:2 5388:6 5395:2 5407:2 5410:2 5412:4 5420:2 5425:2 5433:2 5434:2 5435:4 5442:2 5452:2 5460:2 5472:2 5478:2 5481:2 5484:2 5486:2 5504:12 5519:2 5521:2 5538:2 5540:2 5542:2 5560:2 5562:4 5566:2 5598:24 5603:4 5605:6 5607:2 5610:2 5618:2 5630:4 5632:4 5640:2 5642:2 5644:2 5651:2 5661:2 5668:2 5671:4 5698:2 5700:4 5705:2 5720:4 5723:2 5725:8 5734:4 5751:2 5758:2 5761:2 5768:2 5771:2 5774:2 5782:2 5787:2 5799:2 5818:8 5842:2 5862:2 5863:2 5864:2 5882:4 5889:2 5891:2 5893:2 5895:4 5898:2 5924:2 5929:2 5934:2 5935:6 5940:2 5943:2 5977:2 5979:2 5984:2 5992:2 6003:2 6029:2 6040:4 6048:2 6063:2 6068:2 6073:2 6075:4 6076:2 6078:2 6084:8 6118:2 6121:8 6127:8 6145:2 6163:2 6172:4 6178:4 6190:2 6233:2 6236:2 6238:2 6245:2 6250:2 6267:2 6297:2 6298:4 6302:2 6350:2 6358:2 6361:2 6401:2 6415:2 6433:2 6449:2 6466:4 6494:2 6495:2 6512:8 6517:2 6535:2 6554:2 6567:4 6568:4 6574:2 6577:2 6589:2 6602:4 6608:2 6616:2 6617:2 6619:4 6634:4 6639:2 6650:2 6660:2 6675:2 6678:2 6686:2 6707:14 6712:2 6715:2 6716:2 6747:2 6751:2 6758:4 6778:2 6779:2 6783:4 6791:2 6795:2 6797:2 6804:2 6812:2 6817:2 6823:4 6824:2 6826:4 6857:2 6869:2 6875:2 6877:2 6885:2 6933:4 6946:2 6949:2 6955:2 6968:2 6969:4 6995:2 6999:2 7008:2 7048:2 7114:4 7134:2 7144:2 7157:2 7163:2 7168:12 7196:2 7215:2 7229:2 7239:2 7269:4 7309:2 7312:2 7329:2 7336:2 7363:4 7372:2 7376:2 7406:2 7413:2 7420:4 7430:4 7452:4 7459:4 7460:6 7462:2 7468:2 7480:2 7497:2 7506:8 7507:2 7537:4 7538:2 7550:2 7557:4 7558:2 7579:2 7599:2 7601:2 7604:2 7643:4 7647:6 7691:2 7700:6 7706:2 7719:2 7730:4 7745:2 7751:2 7764:2 7766:2 7834:2 7837:4 7841:2 7843:2 7852:2 7874:8 7878:2 7879:2 7892:4 7915:2 7936:2 7941:2 7954:2 7955:2 7959:2 7969:2 7994:2 7996:4 8000:2 8030:2 8045:4 8070:2 8076:2 8079:2 8080:2 8093:4 8094:4 8110:2 8126:6 8132:2 8137:2 8139:2 8147:2 8176:2 8205:2 8213:2 8227:2 8241:2 8270:2 8271:2 8272:2 8297:2 8321:2 8330:2 8352:4 8365:2 8380:2 8409:2 8437:2 8447:2 8449:2 8460:4 8466:2 8469:2 8484:2 8493:2 8499:2 8505:4 8533:4 8549:2 8554:2 8556:2 8575:2 8581:2 8608:8 8623:4 8631:2 8637:2 8646:2 8656:2 8657:6 8660:2 8685:2 8717:4 8719:2 8724:4 8741:2 8747:4 8768:2 8772:2 8782:2 8793:2 8797:4 8858:2 8893:2 8898:2 8903:2 8926:2 8942:4 8943:4 8949:2 8966:2 8969:2 8973:2 9007:4 9012:2 9015:2 9032:2 9037:2 9054:2 9055:2 9065:2 9066:2 9081:2 9088:2 9103:2 9172:2 9183:2 9210:2 9231:2 9264:2 9266:2 9273:4 9278:2 9295:4 9303:2 9325:2 9333:2 9373:2 9387:2 9396:2 9423:2 9447:2 9448:2 9449:4 9450:2 9460:2 9465:4 9483:2 9492:2 9495:2 9512:2 9529:4 9539:4 9541:4 9546:2 9549:2 9569:2 9574:2 9594:2 9605:2 9606:2 9611:2 9635:2 9660:2 9662:2 9682:2 9694:8 9825:2 9843:2 9863:2 9888:2 9895:2 9968:2 9970:2 9973:4 9997:2 
4 6:2 25:4 40:2 60:2 70:2 76:8 77:2 90:2 92:6 111:2 113:2 121:4 123:2 125:2 129:10 156:2 177:2 194:2 196:2 207:6 223:2 286:6 320:4 323:2 348:2 356:10 449:2 458:4 471:4 491:2 509:2 594:2 633:2 762:2 769:2 782:2 855:2 881:2 1068:2 1126:4 1174:4 1204:10 1230:2 1297:2 1407:6 1467:2 1683:2 1927:6 2229:2 2514:2 2582:2 2900:4 3080:2 3269:2 3304:6 3553:2 4268:2 4378:2 4775:2 5217:2 5326:10 5628:2 6496:2 6893:2 7373:6 8016:2 8508:4 9317:2 9492:6 
0.3994947091831395 1:80 2:60 3:26 4:6 5:334 6:202 7:146 8:418 9:48 10:292 11:96 12:312 13:50 14:222 15:216 16:22 17:64 18:122 19:206 20:108 21:108 22:12 23:118 24:8 25:70 26:34 27:176 28:40 29:46 30:178 31:82 32:126 33:26 34:100 35:28 36:38 37:8 38:436 39:54 40:60 41:114 42:160 43:102 44:76 45:30 46:26 47:96 48:68 49:66 50:72 51:86 52:122 53:568 54:6 55:40 56:48 57:58 58:6 59:144 60:76 61:48 62:88 63:8 64:274 65:160 66:100 67:88 68:24 69:78 70:24 71:8 72:86 73:22 74:220 75:74 76:80 77:102 78:46 79:18 80:14 81:48 82:34 84:108 85:126 86:14 88:20 89:18 90:22 92:176 93:58 95:74 96:64 97:30 98:118 99:60 101:20 102:24 103:36 104:60 105:28 106:42 107:42 108:198 109:22 111:46 112:2 113:46 114:6 115:48 116:62 117:4 118:36 119:114 120:8 121:360 122:94 123:40 124:24 125:56 126:36 127:50 128:42 129:54 130:22 131:22 132:26 133:134 134:20 135:256 136:102 137:24 138:44 140:20 141:36 142:36 143:50 144:12 145:32 146:34 147:10 148:130 149:100 150:78 151:34 152:8 153:24 154:34 155:64 156:64 157:14 158:160 159:108 160:458 161:12 162:16 163:22 164:16 165:50 166:106 167:20 168:28 169:4 170:32 171:46 172:20 173:36 174:102 175:54 176:40 177:64 178:40 179:12 182:34 183:46 184:62 185:2 186:30 187:36 188:6 190:56 191:24 192:28 193:40 194:38 195:54 196:96 197:28 198:14 199:104 200:32 201:64 202:14 203:62 204:8 205:34 206:34 207:122 208:6 209:2 210:14 211:38 212:62 213:86 214:32 215:20 216:20 217:36 218:50 219:12 220:14 221:48 222:2 223:26 224:12 225:14 226:66 227:18 228:26 229:70 230:14 231:66 232:34 233:16 234:24 235:100 236:44 237:16 238:40 240:20 241:2 242:202 243:24 244:56 245:36 246:2 247:16 248:40 249:40 250:24 251:26 252:18 253:18 254:10 255:34 256:64 257:40 259:20 260:32 261:12 262:132 263:2 264:12 265:18 266:44 268:12 269:8 271:10 272:40 273:28 274:14 275:28 276:26 277:40 278:104 279:4 280:44 281:26 282:10 283:20 284:22 285:24 286:6 287:20 288:18 289:10 290:42 291:18 292:12 293:10 294:132 295:16 296:30 297:46 298:26 299:22 300:24 301:46 302:24 303:64 304:8 306:124 307:54 308:34 309:2 310:54 311:2 312:16 313:92 314:116 315:58 316:44 317:18 319:16 320:20 321:10 322:2 323:6 324:20 325:22 327:30 328:42 329:8 330:54 331:26 333:12 334:36 335:12 336:10 337:34 338:12 339:10 340:18 341:40 342:36 344:16 345:20 346:76 347:6 348:6 349:14 350:24 351:28 352:10 354:28 355:54 356:30 357:8 358:8 359:18 360:22 361:58 362:16 363:42 364:16 365:10 366:4 367:52 368:22 369:2 370:28 372:8 373:14 374:4 375:2 376:6 378:6 379:4 380:56 381:30 382:20 383:26 384:6 385:14 386:22 387:26 388:2 389:10 390:20 391:10 392:26 393:76 394:28 395:4 396:12 397:30 398:2 399:28 400:8 401:50 402:40 404:44 407:24 408:42 409:38 410:16 411:20 413:2 414:4 416:112 417:18 418:66 419:16 420:26 421:120 422:36 423:6 424:42 426:16 427:20 428:20 429:16 430:32 431:16 432:2 433:36 434:2 435:10 436:44 438:18 439:14 441:16 442:32 443:26 444:18 445:38 446:14 447:20 448:14 449:10 450:8 451:6 452:16 453:10 454:34 455:2 456:20 458:18 460:10 461:6 462:10 463:6 464:2 465:16 467:12 468:18 469:12 470:2 471:44 472:50 473:112 474:8 475:6 476:18 477:62 478:46 479:12 480:18 481:6 482:36 483:10 484:8 485:28 486:2 488:10 489:38 490:16 491:10 492:26 493:48 496:16 497:2 498:30 500:10 501:32 502:16 503:2 504:12 505:70 507:46 508:10 509:16 510:2 511:8 512:6 513:16 514:4 515:20 517:66 518:8 519:8 520:28 521:12 522:20 523:42 524:12 525:6 526:24 527:22 528:4 529:18 530:30 532:20 533:14 534:18 535:20 536:6 538:2 540:30 541:4 542:14 546:2 547:30 548:8 549:22 550:14 551:14 552:14 554:8 555:76 556:4 557:8 558:4 559:32 560:38 564:20 565:4 567:28 569:4 570:6 571:6 572:22 573:34 574:10 575:2 576:4 577:4 578:14 581:22 582:28 583:46 584:16 585:2 586:14 587:40 588:30 589:48 590:8 591:10 593:6 594:14 595:36 596:24 597:2 598:16 599:6 600:4 601:40 602:14 603:18 604:10 605:92 608:16 609:8 610:50 611:8 612:14 613:16 614:8 616:14 619:12 620:2 621:8 622:30 623:8 624:12 625:52 626:12 627:8 628:12 629:18 630:20 631:10 632:4 633:16 634:24 635:16 636:12 637:16 638:24 639:6 641:10 642:16 643:24 644:2 645:6 646:40 647:14 649:22 651:68 652:12 653:22 654:8 655:22 657:62 658:18 659:2 661:16 662:44 663:22 664:2 665:2 666:8 668:8 669:66 670:4 671:2 672:14 673:20 674:6 675:18 676:20 677:20 678:16 679:2 680:6 681:14 682:12 683:10 684:34 685:12 686:6 687:12 688:12 689:4 690:8 691:16 692:14 693:4 694:14 695:26 696:16 698:8 699:12 700:4 702:10 703:22 704:30 705:26 706:20 707:8 708:8 709:18 710:22 711:10 712:18 714:12 715:50 716:12 717:22 720:30 721:88 722:8 723:2 724:14 725:14 726:6 727:14 729:20 730:4 731:24 732:6 733:4 734:28 735:28 736:76 737:10 738:14 739:2 740:6 741:24 744:6 745:2 746:6 747:6 748:10 749:46 750:10 751:4 753:14 754:16 755:4 756:2 757:80 758:4 759:16 760:6 761:2 762:16 763:16 764:2 765:16 766:24 767:20 768:12 769:152 770:20 771:24 772:4 774:18 775:8 777:2 781:4 782:16 783:8 784:6 785:2 786:6 788:22 789:8 790:12 791:8 792:32 793:6 794:30 795:2 796:2 797:16 798:10 800:2 802:16 804:26 805:14 806:20 809:20 810:6 814:26 815:8 816:18 817:2 818:12 819:34 820:34 821:10 822:6 823:40 824:16 826:22 828:14 829:4 831:4 832:4 833:4 834:2 835:16 836:18 838:12 839:12 840:2 841:28 842:26 843:2 844:10 845:2 846:12 848:24 852:8 853:8 854:4 855:6 856:24 857:16 858:2 859:18 860:12 861:20 862:4 863:38 864:30 865:52 866:8 867:22 868:18 869:36 870:10 871:16 872:20 873:12 875:14 877:4 879:16 880:18 881:12 882:14 883:20 884:6 885:8 887:8 888:2 889:8 890:2 891:8 892:50 893:8 894:2 895:6 896:6 897:26 898:10 899:28 902:34 903:12 904:8 906:4 908:6 909:6 911:2 912:16 914:26 915:10 916:12 917:2 918:14 919:18 920:18 921:4 922:8 923:12 924:16 925:10 926:12 928:24 931:14 932:24 933:12 934:12 935:6 936:8 937:22 938:4 939:10 940:4 941:6 942:24 943:6 944:10 945:20 946:10 947:2 948:16 949:4 950:4 951:6 952:10 955:8 956:16 957:16 958:6 959:4 960:26 961:12 962:26 964:6 965:2 966:2 967:18 968:16 969:8 970:2 972:24 974:18 975:6 976:64 978:10 979:6 980:52 981:24 982:24 983:10 984:18 985:14 986:10 987:2 988:10 989:14 990:2 992:32 993:20 994:12 995:14 996:20 999:4 1000:12 1001:8 1002:30 1003:6 1004:16 1005:6 1006:2 1007:2 1009:10 1010:4 1011:6 1012:6 1014:6 1015:10 1016:8 1017:40 1018:6 1019:2 1020:4 1021:18 1022:2 1024:26 1025:4 1027:8 1028:4 1029:10 1030:16 1031:10 1032:10 1033:10 1035:4 1036:14 1037:24 1038:6 1039:12 1040:18 1041:42 1042:2 1043:10 1045:12 1046:8 1048:6 1049:10 1050:10 1051:22 1052:14 1053:4 1054:20 1056:4 1057:8 1058:28 1059:8 1060:4 1061:8 1062:4 1063:40 1064:8 1065:8 1066:4 1068:10 1069:18 1071:8 1072:16 1073:2 1074:6 1075:8 1076:2 1077:12 1078:2 1080:4 1081:6 1084:4 1085:18 1086:14 1087:6 1088:12 1089:12 1092:14 1093:14 1095:4 1096:14 1097:28 1098:6 1099:2 1102:12 1103:2 1104:18 1105:4 1109:28 1110:4 1113:6 1114:20 1115:2 1116:4 1117:8 1119:2 1120:8 1121:4 1124:6 1125:8 1126:28 1128:6 1129:12 1130:2 1131:2 1132:8 1133:6 1135:2 1136:6 1137:4 1138:6 1139:4 1140:4 1141:6 1142:8 1143:8 1144:46 1146:10 1147:14 1148:40 1149:4 1150:2 1151:2 1152:6 1153:16 1154:16 1155:6 1156:4 1157:16 1158:10 1159:6 1160:4 1161:2 1162:16 1163:14 1164:12 1165:8 1168:8 1169:2 1170:2 1171:6 1172:6 1173:2 1174:2 1176:8 1177:6 1180:4 1181:16 1183:4 1184:24 1185:12 1186:4 1187:10 1188:10 1189:8 1190:12 1191:24 1192:6 1193:30 1194:22 1195:10 1196:2 1197:38 1198:14 1199:24 1200:4 1203:6 1204:2 1205:4 1206:2 1207:22 1209:2 1210:10 1211:22 1213:8 1214:6 1215:14 1217:10 1218:2 1219:32 1220:2 1221:4 1222:6 1224:6 1226:6 1229:6 1230:10 1232:30 1234:16 1236:18 1237:4 1238:2 1239:4 1240:2 1241:6 1242:4 1243:12 1250:18 1251:2 1253:30 1255:26 1256:14 1257:4 1258:20 1259:24 1260:4 1261:22 1262:20 1263:8 1264:16 1265:20 1266:6 1267:4 1268:2 1269:4 1270:6 1271:4 1272:4 1273:14 1275:2 1276:2 1277:2 1278:4 1279:16 1281:10 1282:20 1283:2 1284:26 1285:20 1286:14 1288:6 1290:2 1292:4 1293:4 1294:2 1295:8 1297:6 1298:22 1299:2 1300:4 1301:12 1302:22 1303:4 1305:4 1306:2 1307:2 1308:12 1309:2 1310:10 1311:8 1312:4 1313:6 1314:8 1315:10 1316:10 1317:8 1318:6 1319:10 1321:14 1322:2 1324:2 1325:14 1326:4 1327:38 1328:6 1329:6 1330:6 1331:20 1332:14 1333:8 1334:12 1335:4 1338:8 1341:18 1342:4 1343:18 1344:8 1345:26 1346:6 1347:8 1350:14 1351:4 1352:2 1354:6 1355:4 1356:8 1357:2 1360:8 1362:22 1363:2 1365:4 1369:14 1370:10 1371:16 1372:2 1373:2 1374:32 1375:26 1377:10 1380:12 1382:24 1384:2 1385:10 1386:16 1387:12 1388:2 1391:4 1392:2 1393:14 1394:22 1396:10 1398:56 1399:8 1400:6 1401:12 1403:16 1404:10 1405:10 1407:2 1409:16 1410:10 1411:12 1412:4 1413:32 1415:50 1417:4 1418:4 1419:8 1420:6 1421:10 1424:2 1425:16 1427:6 1428:6 1430:8 1432:6 1434:48 1435:2 1436:14 1437:6 1438:2 1440:4 1441:4 1442:20 1443:20 1444:2 1445:18 1448:14 1450:10 1451:4 1452:28 1453:2 1454:2 1455:16 1456:12 1457:16 1458:10 1461:6 1462:14 1464:4 1465:8 1466:14 1467:8 1469:2 1470:4 1471:4 1472:4 1473:2 1474:8 1475:2 1476:4 1477:4 1478:18 1479:4 1481:4 1482:4 1483:6 1484:2 1486:6 1487:6 1488:6 1489:4 1490:90 1491:2 1492:8 1495:4 1496:20 1497:10 1498:16 1499:14 1500:2 1502:6 1503:16 1504:12 1505:8 1507:6 1508:2 1509:2 1510:4 1511:6 1512:8 1513:2 1514:10 1516:6 1517:16 1519:26 1520:6 1521:2 1522:2 1524:24 1525:2 1527:4 1528:2 1530:22 1532:6 1533:6 1536:2 1538:6 1539:12 1543:40 1544:2 1546:6 1548:2 1550:8 1551:50 1552:14 1553:2 1554:2 1555:10 1556:8 1557:4 1558:18 1560:2 1561:10 1563:2 1565:4 1566:4 1568:2 1570:2 1572:18 1573:6 1575:4 1576:6 1577:2 1578:4 1579:12 1580:2 1582:10 1585:8 1587:2 1588:4 1591:2 1593:6 1594:2 1598:6 1599:10 1600:2 1601:2 1602:2 1603:14 1604:12 1605:10 1606:2 1607:28 1608:2 1609:2 1610:26 1611:2 1612:28 1613:8 1614:4 1615:6 1616:2 1617:10 1618:4 1619:24 1620:4 1621:4 1622:14 1623:4 1627:4 1628:10 1629:12 1630:4 1631:46 1632:2 1633:6 1634:2 1636:6 1637:8 1639:8 1640:10 1641:12 1642:2 1643:2 1644:4 1645:16 1646:2 1647:2 1648:4 1649:14 1650:2 1651:12 1652:4 1653:4 1654:12 1655:4 1656:2 1658:2 1660:6 1663:2 1665:2 1667:18 1669:6 1670:4 1671:8 1672:4 1673:8 1674:4 1675:4 1676:14 1679:2 1680:4 1681:2 1682:18 1683:10 1685:2 1687:2 1688:16 1689:10 1690:4 1691:6 1693:12 1694:2 1695:24 1698:12 1699:6 1700:4 1701:12 1702:4 1703:6 1704:2 1705:6 1707:10 1708:4 1709:32 1710:4 1711:4 1712:16 1713:2 1717:2 1721:16 1722:8 1723:8 1724:40 1725:10 1726:8 1728:10 1729:2 1730:2 1731:6 1733:12 1734:18 1735:2 1736:8 1737:4 1738:12 1739:6 1740:4 1741:2 1742:12 1743:8 1744:6 1745:4 1746:6 1747:4 1750:2 1751:2 1752:8 1753:4 1754:4 1756:2 1758:2 1760:10 1761:4 1762:10 1763:2 1767:6 1768:60 1770:4 1771:12 1773:14 1774:2 1776:4 1780:4 1781:14 1782:6 1783:4 1784:4 1785:2 1786:28 1787:2 1788:8 1790:10 1791:8 1793:8 1794:10 1795:4 1796:4 1797:6 1798:8 1799:2 1800:2 1801:4 1803:2 1804:2 1805:4 1806:12 1807:2 1809:2 1810:2 1811:2 1813:2 1814:2 1815:2 1817:4 1818:2 1821:2 1822:14 1824:12 1825:10 1827:14 1830:2 1831:12 1832:4 1833:14 1834:4 1835:6 1837:6 1840:8 1841:10 1842:10 1843:16 1844:22 1845:10 1846:8 1847:4 1848:14 1849:10 1851:18 1854:4 1855:6 1856:12 1858:8 1859:2 1861:4 1862:24 1863:12 1864:2 1865:4 1866:2 1871:2 1872:14 1875:6 1877:4 1879:6 1880:4 1881:6 1882:6 1884:2 1885:6 1887:6 1890:6 1892:6 1893:2 1894:2 1895:12 1899:4 1900:2 1901:4 1902:22 1904:6 1905:14 1906:16 1909:4 1910:10 1911:4 1912:6 1913:2 1915:2 1919:2 1920:14 1921:4 1923:6 1924:6 1925:8 1926:4 1927:32 1928:4 1929:6 1931:2 1934:14 1935:14 1936:14 1937:4 1939:4 1941:2 1943:40 1946:6 1947:2 1950:8 1951:2 1952:6 1953:6 1955:8 1956:14 1957:6 1958:6 1959:2 1961:2 1962:10 1963:4 1966:28 1967:2 1969:2 1970:4 1971:8 1972:4 1973:20 1974:6 1975:6 1977:2 1978:4 1979:8 1980:2 1981:2 1982:2 1983:2 1984:12 1986:6 1987:4 1988:2 1989:8 1990:2 1991:20 1992:10 1994:8 1996:2 1998:2 2001:36 2003:2 2004:6 2005:2 2006:10 2008:2 2009:4 2011:8 2013:4 2014:4 2015:4 2017:6 2018:18 2019:10 2021:6 2023:54 2024:2 2025:6 2029:8 2030:10 2031:2 2032:6 2033:4 2034:10 2035:2 2038:10 2040:2 2042:22 2044:8 2045:12 2046:2 2047:14 2048:4 2049:10 2052:6 2053:2 2054:8 2055:12 2058:4 2060:42 2065:4 2066:52 2067:2 2068:2 2069:6 2070:2 2071:2 2072:2 2073:2 2076:16 2077:6 2078:2 2082:2 2083:42 2084:2 2085:6 2086:6 2087:6 2090:8 2091:26 2093:4 2097:4 2098:10 2099:10 2100:2 2101:6 2103:6 2106:2 2107:8 2109:6 2111:10 2113:18 2116:6 2119:4 2120:2 2121:2 2123:4 2124:2 2125:2 2126:4 2128:2 2131:2 2132:10 2140:2 2141:6 2143:12 2145:2 2146:2 2147:2 2150:8 2152:10 2153:4 2154:6 2155:2 2156:8 2157:4 2159:10 2160:4 2164:2 2165:6 2169:2 2170:2 2171:14 2172:4 2173:4 2176:4 2178:4 2179:10 2180:2 2183:4 2184:6 2185:2 2186:2 2187:4 2188:2 2189:14 2191:12 2192:12 2194:2 2195:6 2197:2 2198:6 2199:6 2200:6 2201:2 2202:8 2204:2 2205:6 2208:2 2209:4 2212:8 2214:22 2216:2 2217:10 2219:2 2220:8 2221:10 2222:2 2225:8 2226:4 2228:2 2229:6 2230:20 2233:4 2234:2 2235:6 2236:8 2237:6 2239:8 2240:12 2241:2 2242:6 2243:8 2244:10 2245:6 2246:6 2247:8 2248:4 2250:6 2252:6 2254:2 2255:4 2256:24 2258:20 2260:2 2262:2 2264:2 2265:2 2266:24 2267:6 2268:2 2269:2 2270:8 2271:10 2272:10 2273:12 2274:8 2275:4 2277:4 2279:12 2280:4 2281:2 2283:10 2284:2 2285:8 2287:2 2288:4 2289:4 2290:8 2291:2 2292:4 2296:14 2298:14 2299:4 2300:4 2302:6 2303:2 2304:4 2307:2 2308:4 2310:12 2311:6 2312:18 2315:10 2317:4 2318:4 2319:4 2320:18 2321:14 2322:2 2323:6 2324:4 2325:4 2326:4 2329:8 2330:4 2334:10 2335:2 2336:6 2337:2 2338:6 2339:2 2340:8 2342:2 2346:14 2347:42 2349:14 2352:2 2353:2 2354:14 2355:4 2356:4 2357:2 2358:4 2361:2 2362:2 2364:4 2366:16 2367:12 2370:4 2371:2 2372:4 2373:2 2375:2 2376:10 2377:6 2379:2 2380:2 2381:2 2382:4 2383:6 2384:16 2385:26 2386:6 2387:6 2390:2 2391:2 2393:2 2395:10 2397:6 2401:6 2404:8 2405:2 2406:4 2408:4 2409:6 2410:12 2411:2 2413:16 2415:2 2416:22 2417:4 2419:2 2420:18 2421:2 2422:4 2423:8 2425:6 2426:4 2427:2 2428:4 2429:2 2430:6 2431:6 2433:2 2436:10 2438:8 2440:4 2441:12 2442:12 2443:2 2444:4 2445:4 2446:2 2452:4 2453:2 2454:40 2455:4 2456:4 2457:14 2458:2 2459:6 2460:4 2462:12 2464:2 2465:6 2468:14 2469:10 2470:40 2471:4 2472:12 2477:2 2479:2 2481:2 2482:6 2483:4 2485:4 2489:2 2491:6 2492:2 2494:2 2495:2 2496:4 2499:4 2500:4 2501:2 2502:4 2504:2 2505:6 2506:4 2507:8 2509:6 2510:2 2512:2 2513:10 2514:6 2515:2 2516:6 2517:6 2518:4 2520:2 2522:2 2525:10 2526:6 2527:6 2530:6 2531:2 2533:4 2534:2 2537:2 2541:2 2542:4 2543:2 2545:10 2546:2 2548:4 2549:16 2551:10 2553:14 2554:6 2555:4 2557:20 2558:4 2561:12 2562:14 2563:8 2564:4 2566:2 2568:8 2569:8 2571:6 2572:4 2573:2 2574:4 2578:2 2579:10 2581:4 2582:18 2584:4 2586:4 2587:2 2591:12 2595:2 2599:12 2601:2 2605:2 2606:2 2608:16 2609:6 2611:4 2613:2 2615:10 2617:6 2618:4 2619:18 2622:2 2623:8 2624:4 2625:2 2628:4 2631:8 2632:2 2634:4 2636:8 2637:4 2638:16 2640:6 2641:4 2642:8 2643:4 2644:6 2646:4 2647:10 2649:6 2650:2 2651:16 2654:2 2659:4 2660:2 2663:2 2665:18 2666:152 2667:2 2670:4 2672:2 2674:12 2677:6 2678:4 2679:4 2681:8 2683:2 2684:4 2687:2 2689:8 2690:12 2692:38 2693:2 2694:4 2695:2 2697:6 2700:2 2706:6 2707:2 2708:2 2712:16 2713:2 2715:4 2716:2 2717:6 2719:2 2722:2 2723:8 2726:14 2728:2 2730:2 2732:2 2733:10 2736:16 2737:2 2738:2 2740:2 2743:6 2744:4 2745:2 2751:4 2752:2 2753:2 2757:4 2758:4 2760:4 2761:2 2762:2 2763:22 2764:2 2767:2 2768:4 2774:4 2777:4 2778:6 2779:4 2781:10 2782:4 2784:2 2785:2 2788:8 2789:4 2790:2 2791:4 2793:2 2799:2 2800:6 2802:2 2805:4 2807:4 2808:8 2809:2 2810:4 2812:4 2814:4 2816:2 2818:2 2820:6 2822:6 2824:6 2825:2 2827:4 2829:10 2830:6 2832:2 2833:4 2834:4 2838:20 2840:4 2842:2 2843:12 2844:8 2845:2 2846:2 2850:6 2851:8 2853:8 2854:8 2855:6 2858:4 2860:2 2863:2 2866:4 2868:4 2873:2 2875:4 2877:10 2882:10 2883:4 2884:10 2889:2 2892:4 2893:4 2894:2 2895:8 2897:10 2898:6 2899:2 2900:12 2901:10 2903:4 2904:12 2906:2 2907:4 2909:2 2911:2 2912:6 2913:8 2914:2 2915:12 2917:10 2920:4 2921:18 2922:8 2924:2 2925:2 2926:4 2931:2 2933:2 2936:4 2937:2 2938:4 2939:4 2940:2 2941:4 2943:4 2944:6 2948:2 2949:4 2952:44 2954:10 2955:8 2957:4 2958:2 2959:2 2960:2 2961:2 2962:4 2963:4 2964:12 2965:12 2968:8 2970:2 2975:6 2977:2 2978:10 2979:2 2981:2 2982:2 2983:2 2986:4 2987:12 2988:2 2989:2 2993:10 2994:6 2995:8 2998:2 3000:2 3001:2 3003:2 3004:2 3005:16 3006:2 3007:2 3011:4 3012:30 3013:2 3014:2 3015:4 3016:2 3018:14 3019:2 3020:12 3023:2 3027:2 3028:2 3029:20 3030:6 3032:20 3033:2 3034:2 3035:6 3036:2 3038:2 3040:10 3044:6 3045:6 3047:6 3049:8 3050:10 3051:4 3053:2 3054:2 3056:2 3058:2 3059:4 3062:2 3065:2 3066:2 3067:16 3072:4 3074:2 3077:4 3080:4 3081:6 3083:16 3085:2 3086:8 3089:4 3091:6 3094:2 3099:2 3100:6 3101:2 3103:2 3106:6 3111:2 3115:6 3116:6 3117:4 3120:2 3122:2 3123:4 3125:4 3126:8 3128:6 3129:4 3130:6 3131:2 3132:10 3133:12 3135:4 3137:4 3138:4 3139:4 3141:2 3143:8 3144:8 3146:8 3148:2 3149:10 3152:14 3154:6 3159:2 3160:6 3161:6 3162:2 3164:2 3165:6 3170:4 3171:2 3172:4 3174:2 3177:2 3178:2 3180:2 3181:2 3183:4 3185:2 3187:4 3188:2 3192:6 3193:12 3194:4 3202:6 3204:6 3206:2 3207:2 3208:8 3209:2 3210:6 3211:2 3215:2 3216:8 3217:6 3218:4 3219:2 3221:10 3224:4 3225:2 3227:2 3229:2 3230:2 3231:2 3232:10 3233:22 3240:4 3241:6 3242:16 3243:14 3246:2 3248:2 3249:4 3250:8 3251:2 3254:2 3255:6 3256:2 3259:4 3262:6 3266:4 3267:6 3269:4 3270:6 3272:4 3273:8 3274:8 3275:2 3279:2 3280:12 3282:6 3283:4 3284:18 3286:2 3287:2 3292:4 3293:2 3295:6 3297:6 3301:2 3302:2 3307:2 3310:8 3312:6 3313:2 3315:12 3316:4 3317:6 3318:2 3321:4 3324:8 3328:22 3329:2 3331:4 3333:4 3334:2 3335:2 3337:4 3340:2 3341:4 3344:8 3347:4 3349:6 3354:14 3355:6 3356:4 3360:2 3364:2 3365:10 3366:6 3369:4 3370:2 3372:2 3374:2 3376:2 3377:2 3378:2 3381:4 3384:2 3386:8 3388:4 3390:6 3392:2 3394:6 3395:14 3397:2 3398:10 3399:2 3401:8 3403:2 3404:2 3405:2 3407:8 3411:4 3413:4 3417:6 3418:6 3419:8 3423:2 3424:26 3425:4 3426:2 3428:6 3434:4 3438:2 3441:2 3442:6 3443:2 3445:2 3453:6 3455:4 3464:2 3469:8 3471:4 3474:2 3475:2 3476:2 3477:14 3478:16 3479:6 3480:6 3481:2 3482:2 3483:4 3484:4 3487:4 3488:2 3489:6 3490:2 3491:2 3492:14 3494:10 3495:8 3496:2 3499:4 3502:2 3503:2 3505:20 3506:14 3507:10 3508:2 3513:4 3515:2 3517:4 3518:4 3520:2 3521:2 3522:6 3523:2 3528:6 3531:2 3532:2 3533:6 3536:4 3538:6 3540:4 3545:8 3546:28 3549:8 3556:2 3558:2 3561:2 3563:10 3568:4 3569:8 3571:4 3572:2 3575:4 3577:2 3578:10 3580:4 3582:8 3583:2 3584:2 3585:2 3586:6 3587:14 3588:2 3589:2 3595:2 3597:6 3599:2 3601:4 3602:2 3603:6 3607:2 3608:2 3612:2 3613:4 3614:2 3615:8 3617:2 3618:2 3621:2 3622:4 3624:2 3626:2 3628:2 3629:6 3631:2 3632:4 3634:8 3636:10 3637:2 3641:2 3643:6 3644:2 3647:4 3648:6 3652:8 3655:4 3658:4 3662:2 3663:6 3665:2 3668:2 3670:2 3671:2 3674:2 3675:4 3677:2 3680:6 3681:2 3682:2 3683:2 3686:2 3687:4 3688:4 3690:8 3691:4 3692:36 3693:8 3695:8 3698:2 3700:2 3704:2 3706:4 3707:2 3716:12 3718:2 3719:8 3721:6 3722:6 3723:2 3725:2 3726:10 3728:12 3729:4 3730:2 3732:2 3733:2 3738:10 3742:6 3743:2 3748:2 3750:2 3753:6 3755:2 3758:4 3759:2 3760:4 3761:8 3762:6 3765:4 3766:4 3768:4 3770:2 3776:2 3778:10 3779:2 3780:6 3782:4 3783:2 3784:10 3786:2 3787:4 3791:4 3792:10 3798:4 3803:6 3804:2 3805:4 3809:2 3810:2 3811:4 3812:2 3813:6 3814:2 3816:2 3819:4 3820:4 3821:2 3825:4 3828:4 3830:2 3832:8 3835:2 3836:2 3837:2 3838:12 3839:8 3840:4 3841:6 3846:4 3847:2 3849:8 3850:4 3855:2 3864:2 3866:6 3867:2 3868:2 3870:8 3876:2 3881:4 3882:4 3884:2 3885:4 3886:4 3887:4 3892:4 3893:2 3895:8 3898:12 3899:2 3900:2 3902:4 3911:6 3913:2 3914:2 3915:8 3916:4 3917:2 3921:6 3922:6 3934:2 3940:2 3942:6 3945:2 3947:8 3950:2 3951:2 3952:2 3954:4 3955:4 3956:2 3957:6 3958:16 3960:4 3963:12 3964:6 3968:2 3971:4 3974:6 3976:4 3977:4 3979:2 3981:4 3982:2 3983:6 3987:2 3990:2 3991:2 3994:4 3998:6 3999:4 4001:2 4003:2 4004:6 4005:2 4007:4 4008:4 4011:30 4012:2 4016:8 4017:2 4019:2 4021:8 4026:2 4027:2 4029:8 4032:2 4034:2 4039:2 4040:2 4041:2 4043:14 4044:4 4046:6 4048:22 4049:2 4050:6 4051:4 4052:2 4055:6 4058:2 4059:2 4060:2 4061:2 4062:4 4065:6 4066:2 4068:6 4071:4 4073:2 4074:2 4075:14 4077:2 4085:2 4086:4 4087:2 4091:4 4093:2 4095:6 4098:2 4101:2 4102:4 4103:2 4104:4 4105:14 4107:2 4110:2 4117:4 4118:4 4119:2 4120:2 4121:10 4123:16 4126:4 4128:2 4129:2 4131:6 4132:6 4133:4 4134:2 4137:2 4140:6 4149:2 4155:2 4156:2 4157:2 4162:10 4164:4 4165:2 4166:2 4167:18 4174:6 4176:4 4181:2 4182:8 4184:6 4186:2 4187:2 4189:10 4191:2 4195:2 4196:4 4198:2 4200:6 4201:2 4204:2 4206:8 4210:6 4212:2 4213:2 4214:4 4215:8 4223:4 4225:4 4226:2 4228:6 4231:2 4233:4 4237:4 4239:2 4241:2 4244:4 4246:2 4248:2 4251:2 4253:2 4255:4 4256:8 4257:2 4258:6 4259:6 4264:4 4265:2 4272:4 4276:2 4278:4 4283:2 4284:4 4285:4 4289:2 4290:2 4292:4 4293:2 4294:4 4299:16 4301:2 4302:8 4307:2 4308:4 4309:6 4312:6 4313:6 4314:4 4315:2 4317:2 4323:2 4324:4 4325:4 4328:2 4336:12 4339:2 4340:4 4344:2 4346:4 4349:12 4354:24 4355:2 4356:12 4358:2 4360:2 4361:2 4366:2 4367:6 4368:4 4371:4 4372:2 4374:2 4375:4 4376:4 4381:8 4383:2 4390:6 4395:2 4396:2 4397:6 4398:4 4404:4 4406:2 4411:4 4419:10 4420:2 4423:2 4425:2 4427:10 4428:2 4432:4 4433:6 4434:2 4436:2 4439:2 4440:2 4442:2 4443:2 4447:2 4451:4 4453:2 4454:4 4464:6 4465:2 4466:4 4467:2 4468:4 4469:2 4472:4 4474:2 4476:10 4480:4 4481:2 4485:8 4487:4 4488:2 4489:2 4490:2 4493:10 4498:2 4499:12 4501:2 4505:4 4506:2 4516:2 4517:2 4518:4 4519:8 4521:4 4526:4 4527:2 4532:8 4534:2 4537:2 4539:2 4545:2 4546:2 4548:2 4549:2 4550:6 4558:6 4561:2 4564:8 4568:2 4570:2 4571:2 4576:10 4582:2 4584:2 4590:4 4593:2 4598:2 4599:2 4600:4 4601:2 4602:8 4603:2 4605:2 4606:2 4609:2 4610:2 4611:4 4612:6 4613:2 4616:2 4617:10 4620:2 4623:10 4624:2 4625:2 4626:4 4637:2 4638:2 4640:6 4643:4 4645:2 4648:4 4653:2 4654:2 4655:4 4656:6 4657:2 4659:2 4660:2 4663:4 4666:14 4668:2 4669:2 4672:2 4676:4 4677:2 4678:2 4681:24 4682:2 4683:2 4684:2 4685:2 4688:2 4699:2 4704:2 4707:2 4711:2 4712:8 4713:12 4724:4 4729:2 4734:2 4735:4 4737:2 4739:2 4741:2 4743:8 4749:6 4751:2 4755:6 4759:2 4760:2 4761:4 4767:4 4768:4 4770:2 4778:2 4779:2 4780:4 4781:6 4786:2 4787:4 4790:4 4792:6 4794:2 4795:4 4798:28 4802:2 4810:2 4813:2 4814:4 4816:2 4821:4 4823:2 4828:6 4829:2 4831:2 4833:8 4835:2 4837:2 4839:6 4840:2 4843:2 4846:2 4847:10 4848:4 4849:2 4850:2 4853:2 4859:2 4865:2 4868:4 4869:20 4872:4 4873:2 4874:2 4875:4 4879:2 4880:2 4884:2 4885:4 4889:2 4895:2 4897:2 4903:2 4909:2 4911:2 4912:4 4913:6 4915:2 4918:2 4929:14 4930:4 4932:2 4933:2 4936:2 4937:6 4938:2 4939:2 4944:6 4952:2 4960:2 4961:6 4964:4 4965:4 4972:2 4976:2 4978:2 4980:4 4987:4 4989:2 4990:2 4996:14 5003:12 5010:2 5013:12 5017:6 5018:6 5021:2 5025:4 5029:4 5030:4 5034:2 5035:2 5036:4 5040:8 5043:2 5044:2 5045:2 5049:6 5050:4 5051:4 5053:2 5058:2 5061:2 5066:2 5067:2 5070:2 5071:8 5074:6 5075:4 5078:2 5080:4 5082:6 5083:2 5084:4 5085:4 5086:2 5091:2 5093:4 5098:14 5099:2 5100:4 5101:2 5103:2 5104:2 5105:4 5109:6 5110:2 5111:2 5113:2 5119:4 5121:2 5122:4 5125:4 5126:2 5128:6 5129:4 5130:6 5131:2 5136:4 5139:2 5141:4 5143:2 5144:2 5149:4 5150:4 5154:2 5155:2 5160:16 5161:2 5165:4 5166:2 5167:10 5172:6 5173:4 5183:2 5185:2 5186:4 5187:2 5188:10 5189:2 5195:8 5196:4 5199:4 5200:2 5204:2 5205:2 5207:10 5209:6 5211:2 5213:4 5215:4 5216:2 5217:2 5218:4 5221:2 5223:2 5227:4 5228:4 5230:2 5231:2 5233:6 5234:4 5242:4 5249:2 5250:4 5254:2 5256:2 5261:12 5262:12 5265:2 5266:4 5268:2 5269:8 5270:8 5271:2 5275:8 5276:6 5280:8 5281:2 5284:2 5286:4 5288:2 5294:4 5296:4 5300:4 5306:8 5315:2 5320:2 5321:4 5322:12 5324:8 5326:2 5328:2 5331:4 5332:2 5338:2 5339:4 5341:2 5345:2 5346:2 5347:4 5352:2 5353:2 5355:2 5357:2 5364:6 5366:2 5368:2 5379:2 5382:4 5388:14 5391:4 5393:2 5397:2 5400:8 5406:8 5411:6 5412:2 5415:2 5417:4 5419:2 5420:4 5422:2 5425:12 5426:2 5428:6 5429:2 5434:2 5441:2 5446:2 5448:8 5449:2 5452:6 5454:2 5456:2 5457:6 5462:2 5469:4 5473:4 5474:4 5475:4 5476:2 5491:2 5494:4 5495:2 5498:2 5499:2 5500:4 5501:2 5503:4 5505:4 5510:2 5511:2 5515:4 5516:4 5517:22 5518:2 5520:2 5525:2 5527:2 5529:4 5530:2 5534:2 5538:2 5539:4 5544:2 5545:2 5546:6 5548:2 5549:4 5552:4 5553:2 5555:2 5557:4 5560:2 5562:2 5563:6 5564:2 5566:8 5567:8 5568:4 5569:2 5573:4 5574:2 5576:2 5579:2 5581:10 5586:2 5591:4 5594:4 5600:2 5601:2 5603:8 5610:6 5612:2 5616:2 5618:4 5621:2 5622:2 5623:8 5624:2 5628:2 5630:2 5632:2 5636:8 5637:8 5638:2 5640:2 5641:2 5643:2 5647:2 5648:2 5652:2 5655:2 5658:4 5660:4 5662:18 5666:4 5669:2 5671:6 5676:2 5677:4 5681:4 5683:6 5688:4 5692:2 5697:4 5698:4 5700:4 5705:2 5708:2 5709:4 5711:8 5722:2 5723:2 5728:6 5729:4 5730:4 5731:2 5732:2 5733:4 5735:4 5739:6 5740:4 5745:2 5747:2 5748:2 5749:4 5755:6 5757:2 5760:4 5764:2 5765:2 5768:6 5769:4 5773:2 5778:2 5780:2 5783:4 5784:2 5795:2 5798:2 5805:4 5807:6 5808:2 5811:2 5816:8 5817:2 5819:2 5820:2 5824:2 5825:4 5828:4 5833:2 5836:4 5839:2 